digraph Tree {
node [shape=box, style="filled, rounded", color="black", fontname="helvetica"] ;
edge [fontname="helvetica"] ;
0 [label="d1 <= 0.5\ngini = 0.495\nsamples = 27022\nvalue = [2592, 6566, 17864]", fillcolor="#b992f1"] ;
1 [label="g1 <= 0.5\ngini = 0.447\nsamples = 19340\nvalue = [1760, 3822, 13758]", fillcolor="#ae80ee"] ;
0 -> 1 [labeldistance=2.5, labelangle=45, headlabel="True"] ;
2 [label="a1 <= 0.5\ngini = 0.486\nsamples = 13371\nvalue = [1207, 3210, 8954]", fillcolor="#b88ff0"] ;
1 -> 2 ;
3 [label="c2 <= 0.5\ngini = 0.525\nsamples = 8705\nvalue = [779, 2547, 5379]", fillcolor="#c5a4f3"] ;
2 -> 3 ;
4 [label="d3 <= 0.5\ngini = 0.494\nsamples = 6251\nvalue = [539, 1596, 4116]", fillcolor="#bb94f1"] ;
3 -> 4 ;
5 [label="c3 <= 0.5\ngini = 0.479\nsamples = 5702\nvalue = [502, 1340, 3860]", fillcolor="#b68df0"] ;
4 -> 5 ;
6 [label="c2 <= -0.5\ngini = 0.451\nsamples = 4976\nvalue = [407, 1060, 3509]", fillcolor="#b083ef"] ;
5 -> 6 ;
7 [label="b3 <= 0.5\ngini = 0.163\nsamples = 997\nvalue = [35, 52, 910]", fillcolor="#8d4be7"] ;
6 -> 7 ;
8 [label="e3 <= 0.5\ngini = 0.137\nsamples = 882\nvalue = [27, 37, 818]", fillcolor="#8b48e7"] ;
7 -> 8 ;
9 [label="b1 <= 0.5\ngini = 0.12\nsamples = 842\nvalue = [20, 33, 789]", fillcolor="#8946e7"] ;
8 -> 9 ;
10 [label="g1 <= -0.5\ngini = 0.174\nsamples = 479\nvalue = [12, 33, 434]", fillcolor="#8e4de8"] ;
9 -> 10 ;
11 [label="a2 <= -0.5\ngini = 0.299\nsamples = 161\nvalue = [7, 21, 133]", fillcolor="#9a61ea"] ;
10 -> 11 ;
12 [label="a3 <= 0.5\ngini = 0.612\nsamples = 7\nvalue = [1, 3, 3]", fillcolor="#ffffff"] ;
11 -> 12 ;
13 [label="gini = 0.0\nsamples = 3\nvalue = [0, 3, 0]", fillcolor="#39e581"] ;
12 -> 13 ;
14 [label="f2 <= 0.5\ngini = 0.375\nsamples = 4\nvalue = [1, 0, 3]", fillcolor="#ab7bee"] ;
12 -> 14 ;
15 [label="gini = 0.0\nsamples = 3\nvalue = [0, 0, 3]", fillcolor="#8139e5"] ;
14 -> 15 ;
16 [label="gini = 0.0\nsamples = 1\nvalue = [1, 0, 0]", fillcolor="#e58139"] ;
14 -> 16 ;
17 [label="f3 <= -0.5\ngini = 0.272\nsamples = 154\nvalue = [6, 18, 130]", fillcolor="#975cea"] ;
11 -> 17 ;
18 [label="c1 <= 0.0\ngini = 0.444\nsamples = 3\nvalue = [0, 2, 1]", fillcolor="#9cf2c0"] ;
17 -> 18 ;
19 [label="gini = 0.0\nsamples = 1\nvalue = [0, 0, 1]", fillcolor="#8139e5"] ;
18 -> 19 ;
20 [label="gini = 0.0\nsamples = 2\nvalue = [0, 2, 0]", fillcolor="#39e581"] ;
18 -> 20 ;
21 [label="g3 <= -0.5\ngini = 0.257\nsamples = 151\nvalue = [6, 16, 129]", fillcolor="#9659e9"] ;
17 -> 21 ;
22 [label="b1 <= -0.5\ngini = 0.444\nsamples = 15\nvalue = [0, 5, 10]", fillcolor="#c09cf2"] ;
21 -> 22 ;
23 [label="f1 <= 0.5\ngini = 0.375\nsamples = 4\nvalue = [0, 3, 1]", fillcolor="#7beeab"] ;
22 -> 23 ;
24 [label="e2 <= 0.5\ngini = 0.5\nsamples = 2\nvalue = [0, 1, 1]", fillcolor="#ffffff"] ;
23 -> 24 ;
25 [label="gini = 0.0\nsamples = 1\nvalue = [0, 0, 1]", fillcolor="#8139e5"] ;
24 -> 25 ;
26 [label="gini = 0.0\nsamples = 1\nvalue = [0, 1, 0]", fillcolor="#39e581"] ;
24 -> 26 ;
27 [label="gini = 0.0\nsamples = 2\nvalue = [0, 2, 0]", fillcolor="#39e581"] ;
23 -> 27 ;
28 [label="g4 <= 0.5\ngini = 0.298\nsamples = 11\nvalue = [0, 2, 9]", fillcolor="#9d65eb"] ;
22 -> 28 ;
29 [label="a2 <= 0.5\ngini = 0.444\nsamples = 6\nvalue = [0, 2, 4]", fillcolor="#c09cf2"] ;
28 -> 29 ;
30 [label="a1 <= -0.5\ngini = 0.5\nsamples = 4\nvalue = [0, 2, 2]", fillcolor="#ffffff"] ;
29 -> 30 ;
31 [label="gini = 0.0\nsamples = 2\nvalue = [0, 2, 0]", fillcolor="#39e581"] ;
30 -> 31 ;
32 [label="gini = 0.0\nsamples = 2\nvalue = [0, 0, 2]", fillcolor="#8139e5"] ;
30 -> 32 ;
33 [label="gini = 0.0\nsamples = 2\nvalue = [0, 0, 2]", fillcolor="#8139e5"] ;
29 -> 33 ;
34 [label="gini = 0.0\nsamples = 5\nvalue = [0, 0, 5]", fillcolor="#8139e5"] ;
28 -> 34 ;
35 [label="f1 <= -0.5\ngini = 0.226\nsamples = 136\nvalue = [6, 11, 119]", fillcolor="#9254e9"] ;
21 -> 35 ;
36 [label="c1 <= 0.0\ngini = 0.42\nsamples = 10\nvalue = [0, 3, 7]", fillcolor="#b78ef0"] ;
35 -> 36 ;
37 [label="gini = 0.0\nsamples = 3\nvalue = [0, 3, 0]", fillcolor="#39e581"] ;
36 -> 37 ;
38 [label="gini = 0.0\nsamples = 7\nvalue = [0, 0, 7]", fillcolor="#8139e5"] ;
36 -> 38 ;
39 [label="c1 <= 0.0\ngini = 0.204\nsamples = 126\nvalue = [6, 8, 112]", fillcolor="#9050e8"] ;
35 -> 39 ;
40 [label="gini = 0.0\nsamples = 30\nvalue = [0, 0, 30]", fillcolor="#8139e5"] ;
39 -> 40 ;
41 [label="c3 <= -0.5\ngini = 0.26\nsamples = 96\nvalue = [6, 8, 82]", fillcolor="#9559e9"] ;
39 -> 41 ;
42 [label="gini = 0.0\nsamples = 23\nvalue = [0, 0, 23]", fillcolor="#8139e5"] ;
41 -> 42 ;
43 [label="e2 <= 0.5\ngini = 0.328\nsamples = 73\nvalue = [6, 8, 59]", fillcolor="#9c64eb"] ;
41 -> 43 ;
44 [label="f1 <= 0.5\ngini = 0.27\nsamples = 59\nvalue = [4, 5, 50]", fillcolor="#965ae9"] ;
43 -> 44 ;
45 [label="gini = 0.0\nsamples = 26\nvalue = [0, 0, 26]", fillcolor="#8139e5"] ;
44 -> 45 ;
46 [label="g4 <= -0.5\ngini = 0.433\nsamples = 33\nvalue = [4, 5, 24]", fillcolor="#aa79ed"] ;
44 -> 46 ;
47 [label="gini = 0.0\nsamples = 2\nvalue = [2, 0, 0]", fillcolor="#e58139"] ;
46 -> 47 ;
48 [label="g3 <= 0.5\ngini = 0.37\nsamples = 31\nvalue = [2, 5, 24]", fillcolor="#a36eec"] ;
46 -> 48 ;
49 [label="e1 <= 0.5\ngini = 0.461\nsamples = 23\nvalue = [2, 5, 16]", fillcolor="#b286ef"] ;
48 -> 49 ;
50 [label="a1 <= -0.5\ngini = 0.57\nsamples = 16\nvalue = [2, 5, 9]", fillcolor="#d1b7f6"] ;
49 -> 50 ;
51 [label="b2 <= 0.5\ngini = 0.642\nsamples = 9\nvalue = [2, 3, 4]", fillcolor="#eadefb"] ;
50 -> 51 ;
52 [label="f2 <= 0.5\ngini = 0.594\nsamples = 8\nvalue = [1, 3, 4]", fillcolor="#e6d7fa"] ;
51 -> 52 ;
53 [label="a2 <= 0.5\ngini = 0.375\nsamples = 4\nvalue = [0, 1, 3]", fillcolor="#ab7bee"] ;
52 -> 53 ;
54 [label="d2 <= 0.5\ngini = 0.5\nsamples = 2\nvalue = [0, 1, 1]", fillcolor="#ffffff"] ;
53 -> 54 ;
55 [label="gini = 0.0\nsamples = 1\nvalue = [0, 0, 1]", fillcolor="#8139e5"] ;
54 -> 55 ;
56 [label="gini = 0.0\nsamples = 1\nvalue = [0, 1, 0]", fillcolor="#39e581"] ;
54 -> 56 ;
57 [label="gini = 0.0\nsamples = 2\nvalue = [0, 0, 2]", fillcolor="#8139e5"] ;
53 -> 57 ;
58 [label="g2 <= -0.5\ngini = 0.625\nsamples = 4\nvalue = [1, 2, 1]", fillcolor="#bdf6d5"] ;
52 -> 58 ;
59 [label="gini = 0.0\nsamples = 1\nvalue = [0, 0, 1]", fillcolor="#8139e5"] ;
58 -> 59 ;
60 [label="b1 <= -0.5\ngini = 0.444\nsamples = 3\nvalue = [1, 2, 0]", fillcolor="#9cf2c0"] ;
58 -> 60 ;
61 [label="gini = 0.0\nsamples = 1\nvalue = [0, 1, 0]", fillcolor="#39e581"] ;
60 -> 61 ;
62 [label="g2 <= 0.5\ngini = 0.5\nsamples = 2\nvalue = [1, 1, 0]", fillcolor="#ffffff"] ;
60 -> 62 ;
63 [label="gini = 0.0\nsamples = 1\nvalue = [1, 0, 0]", fillcolor="#e58139"] ;
62 -> 63 ;
64 [label="gini = 0.0\nsamples = 1\nvalue = [0, 1, 0]", fillcolor="#39e581"] ;
62 -> 64 ;
65 [label="gini = 0.0\nsamples = 1\nvalue = [1, 0, 0]", fillcolor="#e58139"] ;
51 -> 65 ;
66 [label="f3 <= 0.5\ngini = 0.408\nsamples = 7\nvalue = [0, 2, 5]", fillcolor="#b388ef"] ;
50 -> 66 ;
67 [label="b2 <= 0.5\ngini = 0.278\nsamples = 6\nvalue = [0, 1, 5]", fillcolor="#9a61ea"] ;
66 -> 67 ;
68 [label="d3 <= -0.5\ngini = 0.5\nsamples = 2\nvalue = [0, 1, 1]", fillcolor="#ffffff"] ;
67 -> 68 ;
69 [label="gini = 0.0\nsamples = 1\nvalue = [0, 0, 1]", fillcolor="#8139e5"] ;
68 -> 69 ;
70 [label="gini = 0.0\nsamples = 1\nvalue = [0, 1, 0]", fillcolor="#39e581"] ;
68 -> 70 ;
71 [label="gini = 0.0\nsamples = 4\nvalue = [0, 0, 4]", fillcolor="#8139e5"] ;
67 -> 71 ;
72 [label="gini = 0.0\nsamples = 1\nvalue = [0, 1, 0]", fillcolor="#39e581"] ;
66 -> 72 ;
73 [label="gini = 0.0\nsamples = 7\nvalue = [0, 0, 7]", fillcolor="#8139e5"] ;
49 -> 73 ;
74 [label="gini = 0.0\nsamples = 8\nvalue = [0, 0, 8]", fillcolor="#8139e5"] ;
48 -> 74 ;
75 [label="a1 <= -0.5\ngini = 0.52\nsamples = 14\nvalue = [2, 3, 9]", fillcolor="#ba93f1"] ;
43 -> 75 ;
76 [label="f1 <= 0.5\ngini = 0.625\nsamples = 4\nvalue = [1, 2, 1]", fillcolor="#bdf6d5"] ;
75 -> 76 ;
77 [label="g2 <= 0.5\ngini = 0.444\nsamples = 3\nvalue = [1, 2, 0]", fillcolor="#9cf2c0"] ;
76 -> 77 ;
78 [label="gini = 0.0\nsamples = 2\nvalue = [0, 2, 0]", fillcolor="#39e581"] ;
77 -> 78 ;
79 [label="gini = 0.0\nsamples = 1\nvalue = [1, 0, 0]", fillcolor="#e58139"] ;
77 -> 79 ;
80 [label="gini = 0.0\nsamples = 1\nvalue = [0, 0, 1]", fillcolor="#8139e5"] ;
76 -> 80 ;
81 [label="b2 <= -0.5\ngini = 0.34\nsamples = 10\nvalue = [1, 1, 8]", fillcolor="#9d65eb"] ;
75 -> 81 ;
82 [label="gini = 0.0\nsamples = 1\nvalue = [1, 0, 0]", fillcolor="#e58139"] ;
81 -> 82 ;
83 [label="d2 <= 0.5\ngini = 0.198\nsamples = 9\nvalue = [0, 1, 8]", fillcolor="#9152e8"] ;
81 -> 83 ;
84 [label="gini = 0.0\nsamples = 8\nvalue = [0, 0, 8]", fillcolor="#8139e5"] ;
83 -> 84 ;
85 [label="gini = 0.0\nsamples = 1\nvalue = [0, 1, 0]", fillcolor="#39e581"] ;
83 -> 85 ;
86 [label="e1 <= 0.5\ngini = 0.102\nsamples = 318\nvalue = [5, 12, 301]", fillcolor="#8844e6"] ;
10 -> 86 ;
87 [label="f4 <= 0.5\ngini = 0.186\nsamples = 149\nvalue = [5, 10, 134]", fillcolor="#8f4ee8"] ;
86 -> 87 ;
88 [label="f2 <= 0.5\ngini = 0.142\nsamples = 133\nvalue = [4, 6, 123]", fillcolor="#8b49e7"] ;
87 -> 88 ;
89 [label="f3 <= 0.5\ngini = 0.024\nsamples = 84\nvalue = [1, 0, 83]", fillcolor="#833be5"] ;
88 -> 89 ;
90 [label="gini = 0.0\nsamples = 71\nvalue = [0, 0, 71]", fillcolor="#8139e5"] ;
89 -> 90 ;
91 [label="a2 <= 0.5\ngini = 0.142\nsamples = 13\nvalue = [1, 0, 12]", fillcolor="#8c49e7"] ;
89 -> 91 ;
92 [label="gini = 0.0\nsamples = 9\nvalue = [0, 0, 9]", fillcolor="#8139e5"] ;
91 -> 92 ;
93 [label="b1 <= -0.5\ngini = 0.375\nsamples = 4\nvalue = [1, 0, 3]", fillcolor="#ab7bee"] ;
91 -> 93 ;
94 [label="gini = 0.0\nsamples = 1\nvalue = [1, 0, 0]", fillcolor="#e58139"] ;
93 -> 94 ;
95 [label="gini = 0.0\nsamples = 3\nvalue = [0, 0, 3]", fillcolor="#8139e5"] ;
93 -> 95 ;
96 [label="d1 <= -0.5\ngini = 0.315\nsamples = 49\nvalue = [3, 6, 40]", fillcolor="#9b62ea"] ;
88 -> 96 ;
97 [label="b2 <= 0.5\ngini = 0.531\nsamples = 24\nvalue = [3, 6, 15]", fillcolor="#c09cf2"] ;
96 -> 97 ;
98 [label="c3 <= -0.5\ngini = 0.449\nsamples = 21\nvalue = [3, 3, 15]", fillcolor="#ab7bee"] ;
97 -> 98 ;
99 [label="a2 <= 0.5\ngini = 0.5\nsamples = 6\nvalue = [3, 0, 3]", fillcolor="#ffffff"] ;
98 -> 99 ;
100 [label="a1 <= -0.5\ngini = 0.48\nsamples = 5\nvalue = [3, 0, 2]", fillcolor="#f6d5bd"] ;
99 -> 100 ;
101 [label="gini = 0.0\nsamples = 2\nvalue = [2, 0, 0]", fillcolor="#e58139"] ;
100 -> 101 ;
102 [label="c4 <= 0.5\ngini = 0.444\nsamples = 3\nvalue = [1, 0, 2]", fillcolor="#c09cf2"] ;
100 -> 102 ;
103 [label="gini = 0.0\nsamples = 1\nvalue = [1, 0, 0]", fillcolor="#e58139"] ;
102 -> 103 ;
104 [label="gini = 0.0\nsamples = 2\nvalue = [0, 0, 2]", fillcolor="#8139e5"] ;
102 -> 104 ;
105 [label="gini = 0.0\nsamples = 1\nvalue = [0, 0, 1]", fillcolor="#8139e5"] ;
99 -> 105 ;
106 [label="f3 <= -0.5\ngini = 0.32\nsamples = 15\nvalue = [0, 3, 12]", fillcolor="#a06aec"] ;
98 -> 106 ;
107 [label="e1 <= -0.5\ngini = 0.444\nsamples = 3\nvalue = [0, 2, 1]", fillcolor="#9cf2c0"] ;
106 -> 107 ;
108 [label="gini = 0.0\nsamples = 1\nvalue = [0, 0, 1]", fillcolor="#8139e5"] ;
107 -> 108 ;
109 [label="gini = 0.0\nsamples = 2\nvalue = [0, 2, 0]", fillcolor="#39e581"] ;
107 -> 109 ;
110 [label="f3 <= 0.5\ngini = 0.153\nsamples = 12\nvalue = [0, 1, 11]", fillcolor="#8c4be7"] ;
106 -> 110 ;
111 [label="gini = 0.0\nsamples = 9\nvalue = [0, 0, 9]", fillcolor="#8139e5"] ;
110 -> 111 ;
112 [label="b1 <= -0.5\ngini = 0.444\nsamples = 3\nvalue = [0, 1, 2]", fillcolor="#c09cf2"] ;
110 -> 112 ;
113 [label="gini = 0.0\nsamples = 1\nvalue = [0, 1, 0]", fillcolor="#39e581"] ;
112 -> 113 ;
114 [label="gini = 0.0\nsamples = 2\nvalue = [0, 0, 2]", fillcolor="#8139e5"] ;
112 -> 114 ;
115 [label="gini = 0.0\nsamples = 3\nvalue = [0, 3, 0]", fillcolor="#39e581"] ;
97 -> 115 ;
116 [label="gini = 0.0\nsamples = 25\nvalue = [0, 0, 25]", fillcolor="#8139e5"] ;
96 -> 116 ;
117 [label="f3 <= 0.0\ngini = 0.461\nsamples = 16\nvalue = [1, 4, 11]", fillcolor="#b68cf0"] ;
87 -> 117 ;
118 [label="e1 <= -0.5\ngini = 0.198\nsamples = 9\nvalue = [1, 0, 8]", fillcolor="#9152e8"] ;
117 -> 118 ;
119 [label="gini = 0.0\nsamples = 1\nvalue = [1, 0, 0]", fillcolor="#e58139"] ;
118 -> 119 ;
120 [label="gini = 0.0\nsamples = 8\nvalue = [0, 0, 8]", fillcolor="#8139e5"] ;
118 -> 120 ;
121 [label="d1 <= -0.5\ngini = 0.49\nsamples = 7\nvalue = [0, 4, 3]", fillcolor="#cef8e0"] ;
117 -> 121 ;
122 [label="gini = 0.0\nsamples = 3\nvalue = [0, 0, 3]", fillcolor="#8139e5"] ;
121 -> 122 ;
123 [label="gini = 0.0\nsamples = 4\nvalue = [0, 4, 0]", fillcolor="#39e581"] ;
121 -> 123 ;
124 [label="a5 <= -0.5\ngini = 0.023\nsamples = 169\nvalue = [0, 2, 167]", fillcolor="#833be5"] ;
86 -> 124 ;
125 [label="gini = 0.0\nsamples = 1\nvalue = [0, 1, 0]", fillcolor="#39e581"] ;
124 -> 125 ;
126 [label="d2 <= 0.5\ngini = 0.012\nsamples = 168\nvalue = [0, 1, 167]", fillcolor="#823ae5"] ;
124 -> 126 ;
127 [label="gini = 0.0\nsamples = 142\nvalue = [0, 0, 142]", fillcolor="#8139e5"] ;
126 -> 127 ;
128 [label="f1 <= -0.5\ngini = 0.074\nsamples = 26\nvalue = [0, 1, 25]", fillcolor="#8641e6"] ;
126 -> 128 ;
129 [label="f2 <= 0.5\ngini = 0.375\nsamples = 4\nvalue = [0, 1, 3]", fillcolor="#ab7bee"] ;
128 -> 129 ;
130 [label="b2 <= 0.5\ngini = 0.5\nsamples = 2\nvalue = [0, 1, 1]", fillcolor="#ffffff"] ;
129 -> 130 ;
131 [label="gini = 0.0\nsamples = 1\nvalue = [0, 1, 0]", fillcolor="#39e581"] ;
130 -> 131 ;
132 [label="gini = 0.0\nsamples = 1\nvalue = [0, 0, 1]", fillcolor="#8139e5"] ;
130 -> 132 ;
133 [label="gini = 0.0\nsamples = 2\nvalue = [0, 0, 2]", fillcolor="#8139e5"] ;
129 -> 133 ;
134 [label="gini = 0.0\nsamples = 22\nvalue = [0, 0, 22]", fillcolor="#8139e5"] ;
128 -> 134 ;
135 [label="f2 <= 0.5\ngini = 0.043\nsamples = 363\nvalue = [8, 0, 355]", fillcolor="#843de6"] ;
9 -> 135 ;
136 [label="f4 <= 0.5\ngini = 0.027\nsamples = 292\nvalue = [4, 0, 288]", fillcolor="#833ce5"] ;
135 -> 136 ;
137 [label="d2 <= 0.5\ngini = 0.021\nsamples = 288\nvalue = [3, 0, 285]", fillcolor="#823be5"] ;
136 -> 137 ;
138 [label="b2 <= -0.5\ngini = 0.008\nsamples = 237\nvalue = [1, 0, 236]", fillcolor="#823ae5"] ;
137 -> 138 ;
139 [label="g2 <= 0.5\ngini = 0.077\nsamples = 25\nvalue = [1, 0, 24]", fillcolor="#8641e6"] ;
138 -> 139 ;
140 [label="gini = 0.0\nsamples = 23\nvalue = [0, 0, 23]", fillcolor="#8139e5"] ;
139 -> 140 ;
141 [label="c1 <= 0.0\ngini = 0.5\nsamples = 2\nvalue = [1, 0, 1]", fillcolor="#ffffff"] ;
139 -> 141 ;
142 [label="gini = 0.0\nsamples = 1\nvalue = [0, 0, 1]", fillcolor="#8139e5"] ;
141 -> 142 ;
143 [label="gini = 0.0\nsamples = 1\nvalue = [1, 0, 0]", fillcolor="#e58139"] ;
141 -> 143 ;
144 [label="gini = 0.0\nsamples = 212\nvalue = [0, 0, 212]", fillcolor="#8139e5"] ;
138 -> 144 ;
145 [label="a2 <= -0.5\ngini = 0.075\nsamples = 51\nvalue = [2, 0, 49]", fillcolor="#8641e6"] ;
137 -> 145 ;
146 [label="a3 <= 0.5\ngini = 0.5\nsamples = 2\nvalue = [1, 0, 1]", fillcolor="#ffffff"] ;
145 -> 146 ;
147 [label="gini = 0.0\nsamples = 1\nvalue = [1, 0, 0]", fillcolor="#e58139"] ;
146 -> 147 ;
148 [label="gini = 0.0\nsamples = 1\nvalue = [0, 0, 1]", fillcolor="#8139e5"] ;
146 -> 148 ;
149 [label="a1 <= -0.5\ngini = 0.04\nsamples = 49\nvalue = [1, 0, 48]", fillcolor="#843de6"] ;
145 -> 149 ;
150 [label="b2 <= 0.5\ngini = 0.165\nsamples = 11\nvalue = [1, 0, 10]", fillcolor="#8e4de8"] ;
149 -> 150 ;
151 [label="gini = 0.0\nsamples = 10\nvalue = [0, 0, 10]", fillcolor="#8139e5"] ;
150 -> 151 ;
152 [label="gini = 0.0\nsamples = 1\nvalue = [1, 0, 0]", fillcolor="#e58139"] ;
150 -> 152 ;
153 [label="gini = 0.0\nsamples = 38\nvalue = [0, 0, 38]", fillcolor="#8139e5"] ;
149 -> 153 ;
154 [label="e1 <= -0.5\ngini = 0.375\nsamples = 4\nvalue = [1, 0, 3]", fillcolor="#ab7bee"] ;
136 -> 154 ;
155 [label="gini = 0.0\nsamples = 1\nvalue = [1, 0, 0]", fillcolor="#e58139"] ;
154 -> 155 ;
156 [label="gini = 0.0\nsamples = 3\nvalue = [0, 0, 3]", fillcolor="#8139e5"] ;
154 -> 156 ;
157 [label="e2 <= 0.5\ngini = 0.106\nsamples = 71\nvalue = [4, 0, 67]", fillcolor="#8945e7"] ;
135 -> 157 ;
158 [label="a1 <= -0.5\ngini = 0.083\nsamples = 69\nvalue = [3, 0, 66]", fillcolor="#8742e6"] ;
157 -> 158 ;
159 [label="g1 <= -0.5\ngini = 0.219\nsamples = 24\nvalue = [3, 0, 21]", fillcolor="#9355e9"] ;
158 -> 159 ;
160 [label="a2 <= -0.5\ngini = 0.375\nsamples = 8\nvalue = [2, 0, 6]", fillcolor="#ab7bee"] ;
159 -> 160 ;
161 [label="gini = 0.0\nsamples = 1\nvalue = [1, 0, 0]", fillcolor="#e58139"] ;
160 -> 161 ;
162 [label="b2 <= -0.5\ngini = 0.245\nsamples = 7\nvalue = [1, 0, 6]", fillcolor="#965ae9"] ;
160 -> 162 ;
163 [label="gini = 0.0\nsamples = 1\nvalue = [1, 0, 0]", fillcolor="#e58139"] ;
162 -> 163 ;
164 [label="gini = 0.0\nsamples = 6\nvalue = [0, 0, 6]", fillcolor="#8139e5"] ;
162 -> 164 ;
165 [label="e1 <= 0.5\ngini = 0.117\nsamples = 16\nvalue = [1, 0, 15]", fillcolor="#8946e7"] ;
159 -> 165 ;
166 [label="gini = 0.0\nsamples = 13\nvalue = [0, 0, 13]", fillcolor="#8139e5"] ;
165 -> 166 ;
167 [label="f3 <= 0.5\ngini = 0.444\nsamples = 3\nvalue = [1, 0, 2]", fillcolor="#c09cf2"] ;
165 -> 167 ;
168 [label="gini = 0.0\nsamples = 2\nvalue = [0, 0, 2]", fillcolor="#8139e5"] ;
167 -> 168 ;
169 [label="gini = 0.0\nsamples = 1\nvalue = [1, 0, 0]", fillcolor="#e58139"] ;
167 -> 169 ;
170 [label="gini = 0.0\nsamples = 45\nvalue = [0, 0, 45]", fillcolor="#8139e5"] ;
158 -> 170 ;
171 [label="f3 <= -0.5\ngini = 0.5\nsamples = 2\nvalue = [1, 0, 1]", fillcolor="#ffffff"] ;
157 -> 171 ;
172 [label="gini = 0.0\nsamples = 1\nvalue = [0, 0, 1]", fillcolor="#8139e5"] ;
171 -> 172 ;
173 [label="gini = 0.0\nsamples = 1\nvalue = [1, 0, 0]", fillcolor="#e58139"] ;
171 -> 173 ;
174 [label="a2 <= -0.5\ngini = 0.434\nsamples = 40\nvalue = [7, 4, 29]", fillcolor="#ab7bee"] ;
8 -> 174 ;
175 [label="gini = 0.0\nsamples = 2\nvalue = [0, 2, 0]", fillcolor="#39e581"] ;
174 -> 175 ;
176 [label="f1 <= -0.5\ngini = 0.381\nsamples = 38\nvalue = [7, 2, 29]", fillcolor="#a672ed"] ;
174 -> 176 ;
177 [label="b1 <= 0.5\ngini = 0.625\nsamples = 4\nvalue = [2, 1, 1]", fillcolor="#f6d5bd"] ;
176 -> 177 ;
178 [label="e2 <= 0.0\ngini = 0.5\nsamples = 2\nvalue = [0, 1, 1]", fillcolor="#ffffff"] ;
177 -> 178 ;
179 [label="gini = 0.0\nsamples = 1\nvalue = [0, 1, 0]", fillcolor="#39e581"] ;
178 -> 179 ;
180 [label="gini = 0.0\nsamples = 1\nvalue = [0, 0, 1]", fillcolor="#8139e5"] ;
178 -> 180 ;
181 [label="gini = 0.0\nsamples = 2\nvalue = [2, 0, 0]", fillcolor="#e58139"] ;
177 -> 181 ;
182 [label="e4 <= 0.5\ngini = 0.299\nsamples = 34\nvalue = [5, 1, 28]", fillcolor="#9b62ea"] ;
176 -> 182 ;
183 [label="b2 <= -0.5\ngini = 0.21\nsamples = 26\nvalue = [2, 1, 23]", fillcolor="#9152e8"] ;
182 -> 183 ;
184 [label="d1 <= -0.5\ngini = 0.5\nsamples = 2\nvalue = [0, 1, 1]", fillcolor="#ffffff"] ;
183 -> 184 ;
185 [label="gini = 0.0\nsamples = 1\nvalue = [0, 1, 0]", fillcolor="#39e581"] ;
184 -> 185 ;
186 [label="gini = 0.0\nsamples = 1\nvalue = [0, 0, 1]", fillcolor="#8139e5"] ;
184 -> 186 ;
187 [label="a1 <= -0.5\ngini = 0.153\nsamples = 24\nvalue = [2, 0, 22]", fillcolor="#8c4be7"] ;
183 -> 187 ;
188 [label="e2 <= 0.0\ngini = 0.375\nsamples = 8\nvalue = [2, 0, 6]", fillcolor="#ab7bee"] ;
187 -> 188 ;
189 [label="gini = 0.0\nsamples = 5\nvalue = [0, 0, 5]", fillcolor="#8139e5"] ;
188 -> 189 ;
190 [label="a2 <= 0.5\ngini = 0.444\nsamples = 3\nvalue = [2, 0, 1]", fillcolor="#f2c09c"] ;
188 -> 190 ;
191 [label="gini = 0.0\nsamples = 2\nvalue = [2, 0, 0]", fillcolor="#e58139"] ;
190 -> 191 ;
192 [label="gini = 0.0\nsamples = 1\nvalue = [0, 0, 1]", fillcolor="#8139e5"] ;
190 -> 192 ;
193 [label="gini = 0.0\nsamples = 16\nvalue = [0, 0, 16]", fillcolor="#8139e5"] ;
187 -> 193 ;
194 [label="c1 <= 0.0\ngini = 0.469\nsamples = 8\nvalue = [3, 0, 5]", fillcolor="#cdb0f5"] ;
182 -> 194 ;
195 [label="a2 <= 0.5\ngini = 0.48\nsamples = 5\nvalue = [3, 0, 2]", fillcolor="#f6d5bd"] ;
194 -> 195 ;
196 [label="b2 <= -0.5\ngini = 0.375\nsamples = 4\nvalue = [3, 0, 1]", fillcolor="#eeab7b"] ;
195 -> 196 ;
197 [label="gini = 0.0\nsamples = 1\nvalue = [0, 0, 1]", fillcolor="#8139e5"] ;
196 -> 197 ;
198 [label="gini = 0.0\nsamples = 3\nvalue = [3, 0, 0]", fillcolor="#e58139"] ;
196 -> 198 ;
199 [label="gini = 0.0\nsamples = 1\nvalue = [0, 0, 1]", fillcolor="#8139e5"] ;
195 -> 199 ;
200 [label="gini = 0.0\nsamples = 3\nvalue = [0, 0, 3]", fillcolor="#8139e5"] ;
194 -> 200 ;
201 [label="e1 <= 0.5\ngini = 0.338\nsamples = 115\nvalue = [8, 15, 92]", fillcolor="#9e67eb"] ;
7 -> 201 ;
202 [label="a2 <= 0.5\ngini = 0.481\nsamples = 72\nvalue = [8, 15, 49]", fillcolor="#b489ef"] ;
201 -> 202 ;
203 [label="g1 <= -0.5\ngini = 0.431\nsamples = 63\nvalue = [3, 15, 45]", fillcolor="#b083ef"] ;
202 -> 203 ;
204 [label="f1 <= 0.5\ngini = 0.587\nsamples = 19\nvalue = [2, 8, 9]", fillcolor="#f4edfd"] ;
203 -> 204 ;
205 [label="a1 <= -0.5\ngini = 0.462\nsamples = 13\nvalue = [1, 3, 9]", fillcolor="#b388ef"] ;
204 -> 205 ;
206 [label="gini = 0.0\nsamples = 2\nvalue = [0, 2, 0]", fillcolor="#39e581"] ;
205 -> 206 ;
207 [label="g3 <= -0.5\ngini = 0.314\nsamples = 11\nvalue = [1, 1, 9]", fillcolor="#9a61ea"] ;
205 -> 207 ;
208 [label="gini = 0.0\nsamples = 1\nvalue = [0, 1, 0]", fillcolor="#39e581"] ;
207 -> 208 ;
209 [label="f2 <= 0.5\ngini = 0.18\nsamples = 10\nvalue = [1, 0, 9]", fillcolor="#8f4fe8"] ;
207 -> 209 ;
210 [label="gini = 0.0\nsamples = 9\nvalue = [0, 0, 9]", fillcolor="#8139e5"] ;
209 -> 210 ;
211 [label="gini = 0.0\nsamples = 1\nvalue = [1, 0, 0]", fillcolor="#e58139"] ;
209 -> 211 ;
212 [label="b4 <= -0.5\ngini = 0.278\nsamples = 6\nvalue = [1, 5, 0]", fillcolor="#61ea9a"] ;
204 -> 212 ;
213 [label="gini = 0.0\nsamples = 1\nvalue = [1, 0, 0]", fillcolor="#e58139"] ;
212 -> 213 ;
214 [label="gini = 0.0\nsamples = 5\nvalue = [0, 5, 0]", fillcolor="#39e581"] ;
212 -> 214 ;
215 [label="a2 <= -0.5\ngini = 0.305\nsamples = 44\nvalue = [1, 7, 36]", fillcolor="#9c64eb"] ;
203 -> 215 ;
216 [label="f1 <= 0.5\ngini = 0.5\nsamples = 2\nvalue = [1, 1, 0]", fillcolor="#ffffff"] ;
215 -> 216 ;
217 [label="gini = 0.0\nsamples = 1\nvalue = [0, 1, 0]", fillcolor="#39e581"] ;
216 -> 217 ;
218 [label="gini = 0.0\nsamples = 1\nvalue = [1, 0, 0]", fillcolor="#e58139"] ;
216 -> 218 ;
219 [label="f3 <= 0.5\ngini = 0.245\nsamples = 42\nvalue = [0, 6, 36]", fillcolor="#965ae9"] ;
215 -> 219 ;
220 [label="b1 <= 0.0\ngini = 0.184\nsamples = 39\nvalue = [0, 4, 35]", fillcolor="#8f50e8"] ;
219 -> 220 ;
221 [label="a1 <= -0.5\ngini = 0.36\nsamples = 17\nvalue = [0, 4, 13]", fillcolor="#a876ed"] ;
220 -> 221 ;
222 [label="b4 <= -0.5\ngini = 0.444\nsamples = 3\nvalue = [0, 2, 1]", fillcolor="#9cf2c0"] ;
221 -> 222 ;
223 [label="gini = 0.0\nsamples = 1\nvalue = [0, 0, 1]", fillcolor="#8139e5"] ;
222 -> 223 ;
224 [label="gini = 0.0\nsamples = 2\nvalue = [0, 2, 0]", fillcolor="#39e581"] ;
222 -> 224 ;
225 [label="e1 <= -0.5\ngini = 0.245\nsamples = 14\nvalue = [0, 2, 12]", fillcolor="#965ae9"] ;
221 -> 225 ;
226 [label="gini = 0.0\nsamples = 1\nvalue = [0, 1, 0]", fillcolor="#39e581"] ;
225 -> 226 ;
227 [label="f1 <= -0.5\ngini = 0.142\nsamples = 13\nvalue = [0, 1, 12]", fillcolor="#8c49e7"] ;
225 -> 227 ;
228 [label="b2 <= 0.0\ngini = 0.444\nsamples = 3\nvalue = [0, 1, 2]", fillcolor="#c09cf2"] ;
227 -> 228 ;
229 [label="gini = 0.0\nsamples = 1\nvalue = [0, 1, 0]", fillcolor="#39e581"] ;
228 -> 229 ;
230 [label="gini = 0.0\nsamples = 2\nvalue = [0, 0, 2]", fillcolor="#8139e5"] ;
228 -> 230 ;
231 [label="gini = 0.0\nsamples = 10\nvalue = [0, 0, 10]", fillcolor="#8139e5"] ;
227 -> 231 ;
232 [label="gini = 0.0\nsamples = 22\nvalue = [0, 0, 22]", fillcolor="#8139e5"] ;
220 -> 232 ;
233 [label="b1 <= 0.0\ngini = 0.444\nsamples = 3\nvalue = [0, 2, 1]", fillcolor="#9cf2c0"] ;
219 -> 233 ;
234 [label="c1 <= 0.0\ngini = 0.5\nsamples = 2\nvalue = [0, 1, 1]", fillcolor="#ffffff"] ;
233 -> 234 ;
235 [label="gini = 0.0\nsamples = 1\nvalue = [0, 0, 1]", fillcolor="#8139e5"] ;
234 -> 235 ;
236 [label="gini = 0.0\nsamples = 1\nvalue = [0, 1, 0]", fillcolor="#39e581"] ;
234 -> 236 ;
237 [label="gini = 0.0\nsamples = 1\nvalue = [0, 1, 0]", fillcolor="#39e581"] ;
233 -> 237 ;
238 [label="b2 <= 0.0\ngini = 0.494\nsamples = 9\nvalue = [5, 0, 4]", fillcolor="#fae6d7"] ;
202 -> 238 ;
239 [label="a3 <= -0.5\ngini = 0.444\nsamples = 6\nvalue = [2, 0, 4]", fillcolor="#c09cf2"] ;
238 -> 239 ;
240 [label="gini = 0.0\nsamples = 1\nvalue = [1, 0, 0]", fillcolor="#e58139"] ;
239 -> 240 ;
241 [label="b4 <= -0.5\ngini = 0.32\nsamples = 5\nvalue = [1, 0, 4]", fillcolor="#a06aec"] ;
239 -> 241 ;
242 [label="gini = 0.0\nsamples = 1\nvalue = [1, 0, 0]", fillcolor="#e58139"] ;
241 -> 242 ;
243 [label="gini = 0.0\nsamples = 4\nvalue = [0, 0, 4]", fillcolor="#8139e5"] ;
241 -> 243 ;
244 [label="gini = 0.0\nsamples = 3\nvalue = [3, 0, 0]", fillcolor="#e58139"] ;
238 -> 244 ;
245 [label="gini = 0.0\nsamples = 43\nvalue = [0, 0, 43]", fillcolor="#8139e5"] ;
201 -> 245 ;
246 [label="d2 <= -0.5\ngini = 0.5\nsamples = 3979\nvalue = [372, 1008, 2599]", fillcolor="#bc95f1"] ;
6 -> 246 ;
247 [label="e3 <= 0.5\ngini = 0.027\nsamples = 219\nvalue = [3, 0, 216]", fillcolor="#833ce5"] ;
246 -> 247 ;
248 [label="gini = 0.0\nsamples = 206\nvalue = [0, 0, 206]", fillcolor="#8139e5"] ;
247 -> 248 ;
249 [label="f1 <= 0.5\ngini = 0.355\nsamples = 13\nvalue = [3, 0, 10]", fillcolor="#a774ed"] ;
247 -> 249 ;
250 [label="gini = 0.0\nsamples = 8\nvalue = [0, 0, 8]", fillcolor="#8139e5"] ;
249 -> 250 ;
251 [label="b1 <= 0.5\ngini = 0.48\nsamples = 5\nvalue = [3, 0, 2]", fillcolor="#f6d5bd"] ;
249 -> 251 ;
252 [label="f2 <= -0.5\ngini = 0.375\nsamples = 4\nvalue = [3, 0, 1]", fillcolor="#eeab7b"] ;
251 -> 252 ;
253 [label="gini = 0.0\nsamples = 1\nvalue = [0, 0, 1]", fillcolor="#8139e5"] ;
252 -> 253 ;
254 [label="gini = 0.0\nsamples = 3\nvalue = [3, 0, 0]", fillcolor="#e58139"] ;
252 -> 254 ;
255 [label="gini = 0.0\nsamples = 1\nvalue = [0, 0, 1]", fillcolor="#8139e5"] ;
251 -> 255 ;
256 [label="a2 <= 0.5\ngini = 0.517\nsamples = 3760\nvalue = [369, 1008, 2383]", fillcolor="#c09cf2"] ;
246 -> 256 ;
257 [label="a1 <= -0.5\ngini = 0.543\nsamples = 2794\nvalue = [278, 857, 1659]", fillcolor="#cbadf4"] ;
256 -> 257 ;
258 [label="g2 <= -0.5\ngini = 0.587\nsamples = 1238\nvalue = [149, 450, 639]", fillcolor="#e1d0f9"] ;
257 -> 258 ;
259 [label="b1 <= 0.5\ngini = 0.52\nsamples = 53\nvalue = [7, 34, 12]", fillcolor="#95f1bb"] ;
258 -> 259 ;
260 [label="e1 <= 0.5\ngini = 0.36\nsamples = 28\nvalue = [3, 22, 3]", fillcolor="#69eb9f"] ;
259 -> 260 ;
261 [label="gini = 0.0\nsamples = 17\nvalue = [0, 17, 0]", fillcolor="#39e581"] ;
260 -> 261 ;
262 [label="f2 <= 0.5\ngini = 0.645\nsamples = 11\nvalue = [3, 5, 3]", fillcolor="#cef8e0"] ;
260 -> 262 ;
263 [label="e2 <= 0.5\ngini = 0.469\nsamples = 8\nvalue = [0, 5, 3]", fillcolor="#b0f5cd"] ;
262 -> 263 ;
264 [label="g3 <= 0.5\ngini = 0.375\nsamples = 4\nvalue = [0, 1, 3]", fillcolor="#ab7bee"] ;
263 -> 264 ;
265 [label="gini = 0.0\nsamples = 1\nvalue = [0, 1, 0]", fillcolor="#39e581"] ;
264 -> 265 ;
266 [label="gini = 0.0\nsamples = 3\nvalue = [0, 0, 3]", fillcolor="#8139e5"] ;
264 -> 266 ;
267 [label="gini = 0.0\nsamples = 4\nvalue = [0, 4, 0]", fillcolor="#39e581"] ;
263 -> 267 ;
268 [label="gini = 0.0\nsamples = 3\nvalue = [3, 0, 0]", fillcolor="#e58139"] ;
262 -> 268 ;
269 [label="b2 <= 0.5\ngini = 0.614\nsamples = 25\nvalue = [4, 12, 9]", fillcolor="#dafae7"] ;
259 -> 269 ;
270 [label="f2 <= 0.5\ngini = 0.529\nsamples = 11\nvalue = [2, 2, 7]", fillcolor="#b991f1"] ;
269 -> 270 ;
271 [label="c1 <= 0.5\ngini = 0.653\nsamples = 7\nvalue = [2, 2, 3]", fillcolor="#e6d7fa"] ;
270 -> 271 ;
272 [label="a4 <= 0.5\ngini = 0.444\nsamples = 3\nvalue = [0, 2, 1]", fillcolor="#9cf2c0"] ;
271 -> 272 ;
273 [label="gini = 0.0\nsamples = 2\nvalue = [0, 2, 0]", fillcolor="#39e581"] ;
272 -> 273 ;
274 [label="gini = 0.0\nsamples = 1\nvalue = [0, 0, 1]", fillcolor="#8139e5"] ;
272 -> 274 ;
275 [label="a2 <= -0.5\ngini = 0.5\nsamples = 4\nvalue = [2, 0, 2]", fillcolor="#ffffff"] ;
271 -> 275 ;
276 [label="gini = 0.0\nsamples = 1\nvalue = [0, 0, 1]", fillcolor="#8139e5"] ;
275 -> 276 ;
277 [label="f1 <= 0.5\ngini = 0.444\nsamples = 3\nvalue = [2, 0, 1]", fillcolor="#f2c09c"] ;
275 -> 277 ;
278 [label="gini = 0.0\nsamples = 1\nvalue = [0, 0, 1]", fillcolor="#8139e5"] ;
277 -> 278 ;
279 [label="gini = 0.0\nsamples = 2\nvalue = [2, 0, 0]", fillcolor="#e58139"] ;
277 -> 279 ;
280 [label="gini = 0.0\nsamples = 4\nvalue = [0, 0, 4]", fillcolor="#8139e5"] ;
270 -> 280 ;
281 [label="g3 <= 0.5\ngini = 0.449\nsamples = 14\nvalue = [2, 10, 2]", fillcolor="#7beeab"] ;
269 -> 281 ;
282 [label="b4 <= -0.5\ngini = 0.314\nsamples = 11\nvalue = [1, 9, 1]", fillcolor="#61ea9a"] ;
281 -> 282 ;
283 [label="c1 <= 0.5\ngini = 0.5\nsamples = 2\nvalue = [0, 1, 1]", fillcolor="#ffffff"] ;
282 -> 283 ;
284 [label="gini = 0.0\nsamples = 1\nvalue = [0, 1, 0]", fillcolor="#39e581"] ;
283 -> 284 ;
285 [label="gini = 0.0\nsamples = 1\nvalue = [0, 0, 1]", fillcolor="#8139e5"] ;
283 -> 285 ;
286 [label="b4 <= 0.5\ngini = 0.198\nsamples = 9\nvalue = [1, 8, 0]", fillcolor="#52e891"] ;
282 -> 286 ;
287 [label="gini = 0.0\nsamples = 7\nvalue = [0, 7, 0]", fillcolor="#39e581"] ;
286 -> 287 ;
288 [label="c1 <= 0.5\ngini = 0.5\nsamples = 2\nvalue = [1, 1, 0]", fillcolor="#ffffff"] ;
286 -> 288 ;
289 [label="gini = 0.0\nsamples = 1\nvalue = [0, 1, 0]", fillcolor="#39e581"] ;
288 -> 289 ;
290 [label="gini = 0.0\nsamples = 1\nvalue = [1, 0, 0]", fillcolor="#e58139"] ;
288 -> 290 ;
291 [label="f1 <= 0.5\ngini = 0.667\nsamples = 3\nvalue = [1, 1, 1]", fillcolor="#ffffff"] ;
281 -> 291 ;
292 [label="c1 <= 0.5\ngini = 0.5\nsamples = 2\nvalue = [0, 1, 1]", fillcolor="#ffffff"] ;
291 -> 292 ;
293 [label="gini = 0.0\nsamples = 1\nvalue = [0, 1, 0]", fillcolor="#39e581"] ;
292 -> 293 ;
294 [label="gini = 0.0\nsamples = 1\nvalue = [0, 0, 1]", fillcolor="#8139e5"] ;
292 -> 294 ;
295 [label="gini = 0.0\nsamples = 1\nvalue = [1, 0, 0]", fillcolor="#e58139"] ;
291 -> 295 ;
296 [label="g3 <= 0.5\ngini = 0.582\nsamples = 1185\nvalue = [142, 416, 627]", fillcolor="#dcc9f8"] ;
258 -> 296 ;
297 [label="f2 <= -0.5\ngini = 0.587\nsamples = 1124\nvalue = [133, 413, 578]", fillcolor="#e2d1f9"] ;
296 -> 297 ;
298 [label="f1 <= 0.0\ngini = 0.493\nsamples = 189\nvalue = [20, 43, 126]", fillcolor="#b78ef0"] ;
297 -> 298 ;
299 [label="gini = 0.0\nsamples = 5\nvalue = [0, 5, 0]", fillcolor="#39e581"] ;
298 -> 299 ;
300 [label="e1 <= 0.5\ngini = 0.477\nsamples = 184\nvalue = [20, 38, 126]", fillcolor="#b388ef"] ;
298 -> 300 ;
301 [label="c1 <= -0.5\ngini = 0.567\nsamples = 104\nvalue = [17, 26, 61]", fillcolor="#c6a6f3"] ;
300 -> 301 ;
302 [label="f3 <= 0.5\ngini = 0.643\nsamples = 14\nvalue = [6, 5, 3]", fillcolor="#fcf1e9"] ;
301 -> 302 ;
303 [label="d1 <= -0.5\ngini = 0.32\nsamples = 5\nvalue = [4, 1, 0]", fillcolor="#eca06a"] ;
302 -> 303 ;
304 [label="gini = 0.0\nsamples = 1\nvalue = [0, 1, 0]", fillcolor="#39e581"] ;
303 -> 304 ;
305 [label="gini = 0.0\nsamples = 4\nvalue = [4, 0, 0]", fillcolor="#e58139"] ;
303 -> 305 ;
306 [label="a3 <= 0.5\ngini = 0.642\nsamples = 9\nvalue = [2, 4, 3]", fillcolor="#defbea"] ;
302 -> 306 ;
307 [label="f4 <= -0.5\ngini = 0.594\nsamples = 8\nvalue = [1, 4, 3]", fillcolor="#d7fae6"] ;
306 -> 307 ;
308 [label="b1 <= 0.5\ngini = 0.5\nsamples = 2\nvalue = [1, 0, 1]", fillcolor="#ffffff"] ;
307 -> 308 ;
309 [label="gini = 0.0\nsamples = 1\nvalue = [0, 0, 1]", fillcolor="#8139e5"] ;
308 -> 309 ;
310 [label="gini = 0.0\nsamples = 1\nvalue = [1, 0, 0]", fillcolor="#e58139"] ;
308 -> 310 ;
311 [label="d1 <= -0.5\ngini = 0.444\nsamples = 6\nvalue = [0, 4, 2]", fillcolor="#9cf2c0"] ;
307 -> 311 ;
312 [label="gini = 0.0\nsamples = 1\nvalue = [0, 0, 1]", fillcolor="#8139e5"] ;
311 -> 312 ;
313 [label="a2 <= -0.5\ngini = 0.32\nsamples = 5\nvalue = [0, 4, 1]", fillcolor="#6aeca0"] ;
311 -> 313 ;
314 [label="gini = 0.0\nsamples = 1\nvalue = [0, 0, 1]", fillcolor="#8139e5"] ;
313 -> 314 ;
315 [label="gini = 0.0\nsamples = 4\nvalue = [0, 4, 0]", fillcolor="#39e581"] ;
313 -> 315 ;
316 [label="gini = 0.0\nsamples = 1\nvalue = [1, 0, 0]", fillcolor="#e58139"] ;
306 -> 316 ;
317 [label="b1 <= 0.5\ngini = 0.515\nsamples = 90\nvalue = [11, 21, 58]", fillcolor="#bb95f1"] ;
301 -> 317 ;
318 [label="f4 <= -0.5\ngini = 0.618\nsamples = 45\nvalue = [7, 18, 20]", fillcolor="#f6f0fd"] ;
317 -> 318 ;
319 [label="d1 <= -0.5\ngini = 0.49\nsamples = 7\nvalue = [4, 0, 3]", fillcolor="#f8e0ce"] ;
318 -> 319 ;
320 [label="gini = 0.0\nsamples = 2\nvalue = [0, 0, 2]", fillcolor="#8139e5"] ;
319 -> 320 ;
321 [label="f6 <= 0.5\ngini = 0.32\nsamples = 5\nvalue = [4, 0, 1]", fillcolor="#eca06a"] ;
319 -> 321 ;
322 [label="gini = 0.0\nsamples = 4\nvalue = [4, 0, 0]", fillcolor="#e58139"] ;
321 -> 322 ;
323 [label="gini = 0.0\nsamples = 1\nvalue = [0, 0, 1]", fillcolor="#8139e5"] ;
321 -> 323 ;
324 [label="a4 <= 0.5\ngini = 0.569\nsamples = 38\nvalue = [3, 18, 17]", fillcolor="#f6fef9"] ;
318 -> 324 ;
325 [label="b2 <= 0.5\ngini = 0.522\nsamples = 33\nvalue = [1, 18, 14]", fillcolor="#d5fae4"] ;
324 -> 325 ;
326 [label="f3 <= 0.5\ngini = 0.434\nsamples = 22\nvalue = [0, 15, 7]", fillcolor="#95f1bc"] ;
325 -> 326 ;
327 [label="gini = 0.0\nsamples = 3\nvalue = [0, 0, 3]", fillcolor="#8139e5"] ;
326 -> 327 ;
328 [label="g1 <= -0.5\ngini = 0.332\nsamples = 19\nvalue = [0, 15, 4]", fillcolor="#6eeca3"] ;
326 -> 328 ;
329 [label="gini = 0.0\nsamples = 4\nvalue = [0, 4, 0]", fillcolor="#39e581"] ;
328 -> 329 ;
330 [label="e1 <= -0.5\ngini = 0.391\nsamples = 15\nvalue = [0, 11, 4]", fillcolor="#81eeaf"] ;
328 -> 330 ;
331 [label="gini = 0.0\nsamples = 2\nvalue = [0, 2, 0]", fillcolor="#39e581"] ;
330 -> 331 ;
332 [label="b2 <= -0.5\ngini = 0.426\nsamples = 13\nvalue = [0, 9, 4]", fillcolor="#91f1b9"] ;
330 -> 332 ;
333 [label="gini = 0.0\nsamples = 2\nvalue = [0, 2, 0]", fillcolor="#39e581"] ;
332 -> 333 ;
334 [label="d2 <= 0.5\ngini = 0.463\nsamples = 11\nvalue = [0, 7, 4]", fillcolor="#aaf4c9"] ;
332 -> 334 ;
335 [label="d1 <= -0.5\ngini = 0.5\nsamples = 6\nvalue = [0, 3, 3]", fillcolor="#ffffff"] ;
334 -> 335 ;
336 [label="gini = 0.0\nsamples = 2\nvalue = [0, 0, 2]", fillcolor="#8139e5"] ;
335 -> 336 ;
337 [label="f6 <= 0.5\ngini = 0.375\nsamples = 4\nvalue = [0, 3, 1]", fillcolor="#7beeab"] ;
335 -> 337 ;
338 [label="gini = 0.0\nsamples = 2\nvalue = [0, 2, 0]", fillcolor="#39e581"] ;
337 -> 338 ;
339 [label="a2 <= -0.5\ngini = 0.5\nsamples = 2\nvalue = [0, 1, 1]", fillcolor="#ffffff"] ;
337 -> 339 ;
340 [label="gini = 0.0\nsamples = 1\nvalue = [0, 1, 0]", fillcolor="#39e581"] ;
339 -> 340 ;
341 [label="gini = 0.0\nsamples = 1\nvalue = [0, 0, 1]", fillcolor="#8139e5"] ;
339 -> 341 ;
342 [label="d3 <= -0.5\ngini = 0.32\nsamples = 5\nvalue = [0, 4, 1]", fillcolor="#6aeca0"] ;
334 -> 342 ;
343 [label="c1 <= 0.5\ngini = 0.5\nsamples = 2\nvalue = [0, 1, 1]", fillcolor="#ffffff"] ;
342 -> 343 ;
344 [label="gini = 0.0\nsamples = 1\nvalue = [0, 1, 0]", fillcolor="#39e581"] ;
343 -> 344 ;
345 [label="gini = 0.0\nsamples = 1\nvalue = [0, 0, 1]", fillcolor="#8139e5"] ;
343 -> 345 ;
346 [label="gini = 0.0\nsamples = 3\nvalue = [0, 3, 0]", fillcolor="#39e581"] ;
342 -> 346 ;
347 [label="f3 <= 0.5\ngini = 0.512\nsamples = 11\nvalue = [1, 3, 7]", fillcolor="#c09cf2"] ;
325 -> 347 ;
348 [label="g2 <= 0.5\ngini = 0.375\nsamples = 4\nvalue = [1, 3, 0]", fillcolor="#7beeab"] ;
347 -> 348 ;
349 [label="gini = 0.0\nsamples = 3\nvalue = [0, 3, 0]", fillcolor="#39e581"] ;
348 -> 349 ;
350 [label="gini = 0.0\nsamples = 1\nvalue = [1, 0, 0]", fillcolor="#e58139"] ;
348 -> 350 ;
351 [label="gini = 0.0\nsamples = 7\nvalue = [0, 0, 7]", fillcolor="#8139e5"] ;
347 -> 351 ;
352 [label="b2 <= 0.5\ngini = 0.48\nsamples = 5\nvalue = [2, 0, 3]", fillcolor="#d5bdf6"] ;
324 -> 352 ;
353 [label="e1 <= -0.5\ngini = 0.375\nsamples = 4\nvalue = [1, 0, 3]", fillcolor="#ab7bee"] ;
352 -> 353 ;
354 [label="gini = 0.0\nsamples = 1\nvalue = [1, 0, 0]", fillcolor="#e58139"] ;
353 -> 354 ;
355 [label="gini = 0.0\nsamples = 3\nvalue = [0, 0, 3]", fillcolor="#8139e5"] ;
353 -> 355 ;
356 [label="gini = 0.0\nsamples = 1\nvalue = [1, 0, 0]", fillcolor="#e58139"] ;
352 -> 356 ;
357 [label="b2 <= 0.5\ngini = 0.275\nsamples = 45\nvalue = [4, 3, 38]", fillcolor="#975be9"] ;
317 -> 357 ;
358 [label="f6 <= -0.5\ngini = 0.148\nsamples = 38\nvalue = [1, 2, 35]", fillcolor="#8c4ae7"] ;
357 -> 358 ;
359 [label="gini = 0.0\nsamples = 1\nvalue = [1, 0, 0]", fillcolor="#e58139"] ;
358 -> 359 ;
360 [label="a3 <= -0.5\ngini = 0.102\nsamples = 37\nvalue = [0, 2, 35]", fillcolor="#8844e6"] ;
358 -> 360 ;
361 [label="a5 <= 0.5\ngini = 0.5\nsamples = 2\nvalue = [0, 1, 1]", fillcolor="#ffffff"] ;
360 -> 361 ;
362 [label="gini = 0.0\nsamples = 1\nvalue = [0, 1, 0]", fillcolor="#39e581"] ;
361 -> 362 ;
363 [label="gini = 0.0\nsamples = 1\nvalue = [0, 0, 1]", fillcolor="#8139e5"] ;
361 -> 363 ;
364 [label="b3 <= 0.5\ngini = 0.056\nsamples = 35\nvalue = [0, 1, 34]", fillcolor="#853fe6"] ;
360 -> 364 ;
365 [label="gini = 0.0\nsamples = 27\nvalue = [0, 0, 27]", fillcolor="#8139e5"] ;
364 -> 365 ;
366 [label="a2 <= -0.5\ngini = 0.219\nsamples = 8\nvalue = [0, 1, 7]", fillcolor="#9355e9"] ;
364 -> 366 ;
367 [label="gini = 0.0\nsamples = 1\nvalue = [0, 1, 0]", fillcolor="#39e581"] ;
366 -> 367 ;
368 [label="gini = 0.0\nsamples = 7\nvalue = [0, 0, 7]", fillcolor="#8139e5"] ;
366 -> 368 ;
369 [label="a3 <= 0.5\ngini = 0.612\nsamples = 7\nvalue = [3, 1, 3]", fillcolor="#ffffff"] ;
357 -> 369 ;
370 [label="f3 <= -0.5\ngini = 0.56\nsamples = 5\nvalue = [1, 1, 3]", fillcolor="#c09cf2"] ;
369 -> 370 ;
371 [label="f4 <= 0.5\ngini = 0.5\nsamples = 2\nvalue = [1, 1, 0]", fillcolor="#ffffff"] ;
370 -> 371 ;
372 [label="gini = 0.0\nsamples = 1\nvalue = [0, 1, 0]", fillcolor="#39e581"] ;
371 -> 372 ;
373 [label="gini = 0.0\nsamples = 1\nvalue = [1, 0, 0]", fillcolor="#e58139"] ;
371 -> 373 ;
374 [label="gini = 0.0\nsamples = 3\nvalue = [0, 0, 3]", fillcolor="#8139e5"] ;
370 -> 374 ;
375 [label="gini = 0.0\nsamples = 2\nvalue = [2, 0, 0]", fillcolor="#e58139"] ;
369 -> 375 ;
376 [label="e3 <= 0.5\ngini = 0.316\nsamples = 80\nvalue = [3, 12, 65]", fillcolor="#9d65eb"] ;
300 -> 376 ;
377 [label="b1 <= 0.5\ngini = 0.231\nsamples = 70\nvalue = [3, 6, 61]", fillcolor="#9355e9"] ;
376 -> 377 ;
378 [label="f5 <= -0.5\ngini = 0.044\nsamples = 44\nvalue = [0, 1, 43]", fillcolor="#843ee6"] ;
377 -> 378 ;
379 [label="e2 <= 0.5\ngini = 0.32\nsamples = 5\nvalue = [0, 1, 4]", fillcolor="#a06aec"] ;
378 -> 379 ;
380 [label="gini = 0.0\nsamples = 4\nvalue = [0, 0, 4]", fillcolor="#8139e5"] ;
379 -> 380 ;
381 [label="gini = 0.0\nsamples = 1\nvalue = [0, 1, 0]", fillcolor="#39e581"] ;
379 -> 381 ;
382 [label="gini = 0.0\nsamples = 39\nvalue = [0, 0, 39]", fillcolor="#8139e5"] ;
378 -> 382 ;
383 [label="e3 <= -0.5\ngini = 0.47\nsamples = 26\nvalue = [3, 5, 18]", fillcolor="#b184ef"] ;
377 -> 383 ;
384 [label="gini = 0.0\nsamples = 4\nvalue = [0, 0, 4]", fillcolor="#8139e5"] ;
383 -> 384 ;
385 [label="e2 <= -0.5\ngini = 0.525\nsamples = 22\nvalue = [3, 5, 14]", fillcolor="#bc96f1"] ;
383 -> 385 ;
386 [label="b2 <= -0.5\ngini = 0.656\nsamples = 8\nvalue = [2, 3, 3]", fillcolor="#ffffff"] ;
385 -> 386 ;
387 [label="gini = 0.0\nsamples = 2\nvalue = [0, 2, 0]", fillcolor="#39e581"] ;
386 -> 387 ;
388 [label="a3 <= 0.5\ngini = 0.611\nsamples = 6\nvalue = [2, 1, 3]", fillcolor="#e0cef8"] ;
386 -> 388 ;
389 [label="f3 <= -0.5\ngini = 0.48\nsamples = 5\nvalue = [2, 0, 3]", fillcolor="#d5bdf6"] ;
388 -> 389 ;
390 [label="gini = 0.0\nsamples = 1\nvalue = [1, 0, 0]", fillcolor="#e58139"] ;
389 -> 390 ;
391 [label="c1 <= -0.5\ngini = 0.375\nsamples = 4\nvalue = [1, 0, 3]", fillcolor="#ab7bee"] ;
389 -> 391 ;
392 [label="b2 <= 0.5\ngini = 0.5\nsamples = 2\nvalue = [1, 0, 1]", fillcolor="#ffffff"] ;
391 -> 392 ;
393 [label="gini = 0.0\nsamples = 1\nvalue = [1, 0, 0]", fillcolor="#e58139"] ;
392 -> 393 ;
394 [label="gini = 0.0\nsamples = 1\nvalue = [0, 0, 1]", fillcolor="#8139e5"] ;
392 -> 394 ;
395 [label="gini = 0.0\nsamples = 2\nvalue = [0, 0, 2]", fillcolor="#8139e5"] ;
391 -> 395 ;
396 [label="gini = 0.0\nsamples = 1\nvalue = [0, 1, 0]", fillcolor="#39e581"] ;
388 -> 396 ;
397 [label="b2 <= 0.5\ngini = 0.357\nsamples = 14\nvalue = [1, 2, 11]", fillcolor="#a06bec"] ;
385 -> 397 ;
398 [label="b3 <= 0.5\ngini = 0.165\nsamples = 11\nvalue = [1, 0, 10]", fillcolor="#8e4de8"] ;
397 -> 398 ;
399 [label="gini = 0.0\nsamples = 8\nvalue = [0, 0, 8]", fillcolor="#8139e5"] ;
398 -> 399 ;
400 [label="a2 <= -0.5\ngini = 0.444\nsamples = 3\nvalue = [1, 0, 2]", fillcolor="#c09cf2"] ;
398 -> 400 ;
401 [label="gini = 0.0\nsamples = 1\nvalue = [1, 0, 0]", fillcolor="#e58139"] ;
400 -> 401 ;
402 [label="gini = 0.0\nsamples = 2\nvalue = [0, 0, 2]", fillcolor="#8139e5"] ;
400 -> 402 ;
403 [label="c1 <= -0.5\ngini = 0.444\nsamples = 3\nvalue = [0, 2, 1]", fillcolor="#9cf2c0"] ;
397 -> 403 ;
404 [label="g1 <= -0.5\ngini = 0.5\nsamples = 2\nvalue = [0, 1, 1]", fillcolor="#ffffff"] ;
403 -> 404 ;
405 [label="gini = 0.0\nsamples = 1\nvalue = [0, 1, 0]", fillcolor="#39e581"] ;
404 -> 405 ;
406 [label="gini = 0.0\nsamples = 1\nvalue = [0, 0, 1]", fillcolor="#8139e5"] ;
404 -> 406 ;
407 [label="gini = 0.0\nsamples = 1\nvalue = [0, 1, 0]", fillcolor="#39e581"] ;
403 -> 407 ;
408 [label="b1 <= 0.5\ngini = 0.48\nsamples = 10\nvalue = [0, 6, 4]", fillcolor="#bdf6d5"] ;
376 -> 408 ;
409 [label="d2 <= 0.5\ngini = 0.444\nsamples = 6\nvalue = [0, 2, 4]", fillcolor="#c09cf2"] ;
408 -> 409 ;
410 [label="f3 <= -0.5\ngini = 0.32\nsamples = 5\nvalue = [0, 1, 4]", fillcolor="#a06aec"] ;
409 -> 410 ;
411 [label="gini = 0.0\nsamples = 1\nvalue = [0, 1, 0]", fillcolor="#39e581"] ;
410 -> 411 ;
412 [label="gini = 0.0\nsamples = 4\nvalue = [0, 0, 4]", fillcolor="#8139e5"] ;
410 -> 412 ;
413 [label="gini = 0.0\nsamples = 1\nvalue = [0, 1, 0]", fillcolor="#39e581"] ;
409 -> 413 ;
414 [label="gini = 0.0\nsamples = 4\nvalue = [0, 4, 0]", fillcolor="#39e581"] ;
408 -> 414 ;
415 [label="g1 <= -0.5\ngini = 0.595\nsamples = 935\nvalue = [113, 370, 452]", fillcolor="#ede2fb"] ;
297 -> 415 ;
416 [label="f3 <= -0.5\ngini = 0.61\nsamples = 286\nvalue = [42, 135, 109]", fillcolor="#e2fbec"] ;
415 -> 416 ;
417 [label="e1 <= 0.5\ngini = 0.24\nsamples = 15\nvalue = [1, 13, 1]", fillcolor="#55e993"] ;
416 -> 417 ;
418 [label="gini = 0.0\nsamples = 13\nvalue = [0, 13, 0]", fillcolor="#39e581"] ;
417 -> 418 ;
419 [label="b1 <= 0.5\ngini = 0.5\nsamples = 2\nvalue = [1, 0, 1]", fillcolor="#ffffff"] ;
417 -> 419 ;
420 [label="gini = 0.0\nsamples = 1\nvalue = [0, 0, 1]", fillcolor="#8139e5"] ;
419 -> 420 ;
421 [label="gini = 0.0\nsamples = 1\nvalue = [1, 0, 0]", fillcolor="#e58139"] ;
419 -> 421 ;
422 [label="b3 <= 0.5\ngini = 0.616\nsamples = 271\nvalue = [41, 122, 108]", fillcolor="#eefdf4"] ;
416 -> 422 ;
423 [label="b2 <= -0.5\ngini = 0.624\nsamples = 219\nvalue = [36, 89, 94]", fillcolor="#faf7fe"] ;
422 -> 423 ;
424 [label="f2 <= 0.5\ngini = 0.395\nsamples = 20\nvalue = [4, 1, 15]", fillcolor="#a877ed"] ;
423 -> 424 ;
425 [label="a4 <= 0.5\ngini = 0.142\nsamples = 13\nvalue = [1, 0, 12]", fillcolor="#8c49e7"] ;
424 -> 425 ;
426 [label="gini = 0.0\nsamples = 12\nvalue = [0, 0, 12]", fillcolor="#8139e5"] ;
425 -> 426 ;
427 [label="gini = 0.0\nsamples = 1\nvalue = [1, 0, 0]", fillcolor="#e58139"] ;
425 -> 427 ;
428 [label="g2 <= 0.5\ngini = 0.612\nsamples = 7\nvalue = [3, 1, 3]", fillcolor="#ffffff"] ;
424 -> 428 ;
429 [label="e2 <= 0.5\ngini = 0.56\nsamples = 5\nvalue = [3, 1, 1]", fillcolor="#f2c09c"] ;
428 -> 429 ;
430 [label="b3 <= -0.5\ngini = 0.375\nsamples = 4\nvalue = [3, 0, 1]", fillcolor="#eeab7b"] ;
429 -> 430 ;
431 [label="b4 <= 0.5\ngini = 0.5\nsamples = 2\nvalue = [1, 0, 1]", fillcolor="#ffffff"] ;
430 -> 431 ;
432 [label="gini = 0.0\nsamples = 1\nvalue = [0, 0, 1]", fillcolor="#8139e5"] ;
431 -> 432 ;
433 [label="gini = 0.0\nsamples = 1\nvalue = [1, 0, 0]", fillcolor="#e58139"] ;
431 -> 433 ;
434 [label="gini = 0.0\nsamples = 2\nvalue = [2, 0, 0]", fillcolor="#e58139"] ;
430 -> 434 ;
435 [label="gini = 0.0\nsamples = 1\nvalue = [0, 1, 0]", fillcolor="#39e581"] ;
429 -> 435 ;
436 [label="gini = 0.0\nsamples = 2\nvalue = [0, 0, 2]", fillcolor="#8139e5"] ;
428 -> 436 ;
437 [label="f2 <= 0.5\ngini = 0.621\nsamples = 199\nvalue = [32, 88, 79]", fillcolor="#f0fdf6"] ;
423 -> 437 ;
438 [label="b2 <= 0.5\ngini = 0.626\nsamples = 165\nvalue = [28, 67, 70]", fillcolor="#fbf9fe"] ;
437 -> 438 ;
439 [label="e2 <= 0.5\ngini = 0.63\nsamples = 100\nvalue = [20, 33, 47]", fillcolor="#e5d6fa"] ;
438 -> 439 ;
440 [label="e4 <= 0.5\ngini = 0.622\nsamples = 73\nvalue = [18, 18, 37]", fillcolor="#d3bbf6"] ;
439 -> 440 ;
441 [label="a5 <= -0.5\ngini = 0.604\nsamples = 69\nvalue = [17, 15, 37]", fillcolor="#cfb3f5"] ;
440 -> 441 ;
442 [label="f1 <= 0.5\ngini = 0.444\nsamples = 3\nvalue = [2, 1, 0]", fillcolor="#f2c09c"] ;
441 -> 442 ;
443 [label="gini = 0.0\nsamples = 2\nvalue = [2, 0, 0]", fillcolor="#e58139"] ;
442 -> 443 ;
444 [label="gini = 0.0\nsamples = 1\nvalue = [0, 1, 0]", fillcolor="#39e581"] ;
442 -> 444 ;
445 [label="b1 <= 0.5\ngini = 0.589\nsamples = 66\nvalue = [15, 14, 37]", fillcolor="#c9aaf4"] ;
441 -> 445 ;
446 [label="c1 <= 0.5\ngini = 0.508\nsamples = 37\nvalue = [4, 9, 24]", fillcolor="#bc95f1"] ;
445 -> 446 ;
447 [label="d1 <= -0.5\ngini = 0.142\nsamples = 13\nvalue = [1, 0, 12]", fillcolor="#8c49e7"] ;
446 -> 447 ;
448 [label="gini = 0.0\nsamples = 1\nvalue = [1, 0, 0]", fillcolor="#e58139"] ;
447 -> 448 ;
449 [label="gini = 0.0\nsamples = 12\nvalue = [0, 0, 12]", fillcolor="#8139e5"] ;
447 -> 449 ;
450 [label="g2 <= 0.5\ngini = 0.594\nsamples = 24\nvalue = [3, 9, 12]", fillcolor="#e6d7fa"] ;
446 -> 450 ;
451 [label="a3 <= 0.5\ngini = 0.595\nsamples = 11\nvalue = [2, 6, 3]", fillcolor="#b5f5d0"] ;
450 -> 451 ;
452 [label="gini = 0.0\nsamples = 3\nvalue = [0, 3, 0]", fillcolor="#39e581"] ;
451 -> 452 ;
453 [label="e1 <= 0.5\ngini = 0.656\nsamples = 8\nvalue = [2, 3, 3]", fillcolor="#ffffff"] ;
451 -> 453 ;
454 [label="a5 <= 0.5\ngini = 0.444\nsamples = 3\nvalue = [2, 0, 1]", fillcolor="#f2c09c"] ;
453 -> 454 ;
455 [label="gini = 0.0\nsamples = 2\nvalue = [2, 0, 0]", fillcolor="#e58139"] ;
454 -> 455 ;
456 [label="gini = 0.0\nsamples = 1\nvalue = [0, 0, 1]", fillcolor="#8139e5"] ;
454 -> 456 ;
457 [label="d1 <= -0.5\ngini = 0.48\nsamples = 5\nvalue = [0, 3, 2]", fillcolor="#bdf6d5"] ;
453 -> 457 ;
458 [label="d2 <= 0.5\ngini = 0.444\nsamples = 3\nvalue = [0, 1, 2]", fillcolor="#c09cf2"] ;
457 -> 458 ;
459 [label="gini = 0.0\nsamples = 2\nvalue = [0, 0, 2]", fillcolor="#8139e5"] ;
458 -> 459 ;
460 [label="gini = 0.0\nsamples = 1\nvalue = [0, 1, 0]", fillcolor="#39e581"] ;
458 -> 460 ;
461 [label="gini = 0.0\nsamples = 2\nvalue = [0, 2, 0]", fillcolor="#39e581"] ;
457 -> 461 ;
462 [label="b1 <= -0.5\ngini = 0.462\nsamples = 13\nvalue = [1, 3, 9]", fillcolor="#b388ef"] ;
450 -> 462 ;
463 [label="f1 <= 0.5\ngini = 0.48\nsamples = 5\nvalue = [0, 3, 2]", fillcolor="#bdf6d5"] ;
462 -> 463 ;
464 [label="gini = 0.0\nsamples = 2\nvalue = [0, 0, 2]", fillcolor="#8139e5"] ;
463 -> 464 ;
465 [label="gini = 0.0\nsamples = 3\nvalue = [0, 3, 0]", fillcolor="#39e581"] ;
463 -> 465 ;
466 [label="d1 <= -0.5\ngini = 0.219\nsamples = 8\nvalue = [1, 0, 7]", fillcolor="#9355e9"] ;
462 -> 466 ;
467 [label="gini = 0.0\nsamples = 5\nvalue = [0, 0, 5]", fillcolor="#8139e5"] ;
466 -> 467 ;
468 [label="a3 <= 0.5\ngini = 0.444\nsamples = 3\nvalue = [1, 0, 2]", fillcolor="#c09cf2"] ;
466 -> 468 ;
469 [label="gini = 0.0\nsamples = 1\nvalue = [1, 0, 0]", fillcolor="#e58139"] ;
468 -> 469 ;
470 [label="gini = 0.0\nsamples = 2\nvalue = [0, 0, 2]", fillcolor="#8139e5"] ;
468 -> 470 ;
471 [label="a4 <= -0.5\ngini = 0.625\nsamples = 29\nvalue = [11, 5, 13]", fillcolor="#f1e9fc"] ;
445 -> 471 ;
472 [label="f1 <= 0.5\ngini = 0.375\nsamples = 4\nvalue = [3, 1, 0]", fillcolor="#eeab7b"] ;
471 -> 472 ;
473 [label="gini = 0.0\nsamples = 2\nvalue = [2, 0, 0]", fillcolor="#e58139"] ;
472 -> 473 ;
474 [label="c1 <= 0.5\ngini = 0.5\nsamples = 2\nvalue = [1, 1, 0]", fillcolor="#ffffff"] ;
472 -> 474 ;
475 [label="gini = 0.0\nsamples = 1\nvalue = [0, 1, 0]", fillcolor="#39e581"] ;
474 -> 475 ;
476 [label="gini = 0.0\nsamples = 1\nvalue = [1, 0, 0]", fillcolor="#e58139"] ;
474 -> 476 ;
477 [label="c1 <= -0.5\ngini = 0.602\nsamples = 25\nvalue = [8, 4, 13]", fillcolor="#dac5f7"] ;
471 -> 477 ;
478 [label="d1 <= -0.5\ngini = 0.571\nsamples = 7\nvalue = [4, 2, 1]", fillcolor="#f5cdb0"] ;
477 -> 478 ;
479 [label="gini = 0.0\nsamples = 1\nvalue = [0, 1, 0]", fillcolor="#39e581"] ;
478 -> 479 ;
480 [label="e3 <= 0.5\ngini = 0.5\nsamples = 6\nvalue = [4, 1, 1]", fillcolor="#efb388"] ;
478 -> 480 ;
481 [label="g3 <= -0.5\ngini = 0.625\nsamples = 4\nvalue = [2, 1, 1]", fillcolor="#f6d5bd"] ;
480 -> 481 ;
482 [label="g5 <= 0.5\ngini = 0.444\nsamples = 3\nvalue = [2, 1, 0]", fillcolor="#f2c09c"] ;
481 -> 482 ;
483 [label="g4 <= 0.5\ngini = 0.5\nsamples = 2\nvalue = [1, 1, 0]", fillcolor="#ffffff"] ;
482 -> 483 ;
484 [label="gini = 0.0\nsamples = 1\nvalue = [1, 0, 0]", fillcolor="#e58139"] ;
483 -> 484 ;
485 [label="gini = 0.0\nsamples = 1\nvalue = [0, 1, 0]", fillcolor="#39e581"] ;
483 -> 485 ;
486 [label="gini = 0.0\nsamples = 1\nvalue = [1, 0, 0]", fillcolor="#e58139"] ;
482 -> 486 ;
487 [label="gini = 0.0\nsamples = 1\nvalue = [0, 0, 1]", fillcolor="#8139e5"] ;
481 -> 487 ;
488 [label="gini = 0.0\nsamples = 2\nvalue = [2, 0, 0]", fillcolor="#e58139"] ;
480 -> 488 ;
489 [label="g5 <= -0.5\ngini = 0.494\nsamples = 18\nvalue = [4, 2, 12]", fillcolor="#b78ef0"] ;
477 -> 489 ;
490 [label="gini = 0.0\nsamples = 1\nvalue = [0, 1, 0]", fillcolor="#39e581"] ;
489 -> 490 ;
491 [label="d3 <= -0.5\ngini = 0.443\nsamples = 17\nvalue = [4, 1, 12]", fillcolor="#b185ef"] ;
489 -> 491 ;
492 [label="gini = 0.0\nsamples = 1\nvalue = [1, 0, 0]", fillcolor="#e58139"] ;
491 -> 492 ;
493 [label="f1 <= 0.5\ngini = 0.398\nsamples = 16\nvalue = [3, 1, 12]", fillcolor="#a876ed"] ;
491 -> 493 ;
494 [label="gini = 0.0\nsamples = 8\nvalue = [0, 0, 8]", fillcolor="#8139e5"] ;
493 -> 494 ;
495 [label="g3 <= -0.5\ngini = 0.594\nsamples = 8\nvalue = [3, 1, 4]", fillcolor="#e6d7fa"] ;
493 -> 495 ;
496 [label="gini = 0.0\nsamples = 1\nvalue = [0, 1, 0]", fillcolor="#39e581"] ;
495 -> 496 ;
497 [label="a3 <= 0.5\ngini = 0.49\nsamples = 7\nvalue = [3, 0, 4]", fillcolor="#e0cef8"] ;
495 -> 497 ;
498 [label="e1 <= -0.5\ngini = 0.48\nsamples = 5\nvalue = [3, 0, 2]", fillcolor="#f6d5bd"] ;
497 -> 498 ;
499 [label="gini = 0.0\nsamples = 1\nvalue = [0, 0, 1]", fillcolor="#8139e5"] ;
498 -> 499 ;
500 [label="a5 <= 0.5\ngini = 0.375\nsamples = 4\nvalue = [3, 0, 1]", fillcolor="#eeab7b"] ;
498 -> 500 ;
501 [label="gini = 0.0\nsamples = 3\nvalue = [3, 0, 0]", fillcolor="#e58139"] ;
500 -> 501 ;
502 [label="gini = 0.0\nsamples = 1\nvalue = [0, 0, 1]", fillcolor="#8139e5"] ;
500 -> 502 ;
503 [label="gini = 0.0\nsamples = 2\nvalue = [0, 0, 2]", fillcolor="#8139e5"] ;
497 -> 503 ;
504 [label="b1 <= -0.5\ngini = 0.375\nsamples = 4\nvalue = [1, 3, 0]", fillcolor="#7beeab"] ;
440 -> 504 ;
505 [label="gini = 0.0\nsamples = 2\nvalue = [0, 2, 0]", fillcolor="#39e581"] ;
504 -> 505 ;
506 [label="g2 <= 0.5\ngini = 0.5\nsamples = 2\nvalue = [1, 1, 0]", fillcolor="#ffffff"] ;
504 -> 506 ;
507 [label="gini = 0.0\nsamples = 1\nvalue = [0, 1, 0]", fillcolor="#39e581"] ;
506 -> 507 ;
508 [label="gini = 0.0\nsamples = 1\nvalue = [1, 0, 0]", fillcolor="#e58139"] ;
506 -> 508 ;
509 [label="e3 <= 0.5\ngini = 0.549\nsamples = 27\nvalue = [2, 15, 10]", fillcolor="#c5f7da"] ;
439 -> 509 ;
510 [label="b1 <= -0.5\ngini = 0.49\nsamples = 21\nvalue = [2, 14, 5]", fillcolor="#90f0b8"] ;
509 -> 510 ;
511 [label="g3 <= -0.5\ngini = 0.656\nsamples = 8\nvalue = [2, 3, 3]", fillcolor="#ffffff"] ;
510 -> 511 ;
512 [label="gini = 0.0\nsamples = 2\nvalue = [0, 2, 0]", fillcolor="#39e581"] ;
511 -> 512 ;
513 [label="d1 <= -0.5\ngini = 0.611\nsamples = 6\nvalue = [2, 1, 3]", fillcolor="#e0cef8"] ;
511 -> 513 ;
514 [label="gini = 0.0\nsamples = 1\nvalue = [0, 1, 0]", fillcolor="#39e581"] ;
513 -> 514 ;
515 [label="c1 <= 0.5\ngini = 0.48\nsamples = 5\nvalue = [2, 0, 3]", fillcolor="#d5bdf6"] ;
513 -> 515 ;
516 [label="e3 <= -0.5\ngini = 0.375\nsamples = 4\nvalue = [1, 0, 3]", fillcolor="#ab7bee"] ;
515 -> 516 ;
517 [label="gini = 0.0\nsamples = 2\nvalue = [0, 0, 2]", fillcolor="#8139e5"] ;
516 -> 517 ;
518 [label="f1 <= 0.5\ngini = 0.5\nsamples = 2\nvalue = [1, 0, 1]", fillcolor="#ffffff"] ;
516 -> 518 ;
519 [label="gini = 0.0\nsamples = 1\nvalue = [0, 0, 1]", fillcolor="#8139e5"] ;
518 -> 519 ;
520 [label="gini = 0.0\nsamples = 1\nvalue = [1, 0, 0]", fillcolor="#e58139"] ;
518 -> 520 ;
521 [label="gini = 0.0\nsamples = 1\nvalue = [1, 0, 0]", fillcolor="#e58139"] ;
515 -> 521 ;
522 [label="e5 <= 0.5\ngini = 0.26\nsamples = 13\nvalue = [0, 11, 2]", fillcolor="#5dea98"] ;
510 -> 522 ;
523 [label="e4 <= 0.5\ngini = 0.153\nsamples = 12\nvalue = [0, 11, 1]", fillcolor="#4be78c"] ;
522 -> 523 ;
524 [label="gini = 0.0\nsamples = 9\nvalue = [0, 9, 0]", fillcolor="#39e581"] ;
523 -> 524 ;
525 [label="f1 <= 0.5\ngini = 0.444\nsamples = 3\nvalue = [0, 2, 1]", fillcolor="#9cf2c0"] ;
523 -> 525 ;
526 [label="gini = 0.0\nsamples = 2\nvalue = [0, 2, 0]", fillcolor="#39e581"] ;
525 -> 526 ;
527 [label="gini = 0.0\nsamples = 1\nvalue = [0, 0, 1]", fillcolor="#8139e5"] ;
525 -> 527 ;
528 [label="gini = 0.0\nsamples = 1\nvalue = [0, 0, 1]", fillcolor="#8139e5"] ;
522 -> 528 ;
529 [label="b1 <= 0.5\ngini = 0.278\nsamples = 6\nvalue = [0, 1, 5]", fillcolor="#9a61ea"] ;
509 -> 529 ;
530 [label="gini = 0.0\nsamples = 5\nvalue = [0, 0, 5]", fillcolor="#8139e5"] ;
529 -> 530 ;
531 [label="gini = 0.0\nsamples = 1\nvalue = [0, 1, 0]", fillcolor="#39e581"] ;
529 -> 531 ;
532 [label="d1 <= -0.5\ngini = 0.586\nsamples = 65\nvalue = [8, 34, 23]", fillcolor="#cbf8de"] ;
438 -> 532 ;
533 [label="b1 <= 0.0\ngini = 0.537\nsamples = 23\nvalue = [1, 10, 12]", fillcolor="#ece1fb"] ;
532 -> 533 ;
534 [label="gini = 0.0\nsamples = 3\nvalue = [0, 3, 0]", fillcolor="#39e581"] ;
533 -> 534 ;
535 [label="c1 <= -0.5\ngini = 0.515\nsamples = 20\nvalue = [1, 7, 12]", fillcolor="#cfb3f5"] ;
533 -> 535 ;
536 [label="gini = 0.0\nsamples = 3\nvalue = [0, 3, 0]", fillcolor="#39e581"] ;
535 -> 536 ;
537 [label="c1 <= 0.5\ngini = 0.443\nsamples = 17\nvalue = [1, 4, 12]", fillcolor="#b185ef"] ;
535 -> 537 ;
538 [label="a2 <= -0.5\ngini = 0.48\nsamples = 10\nvalue = [0, 4, 6]", fillcolor="#d5bdf6"] ;
537 -> 538 ;
539 [label="gini = 0.0\nsamples = 2\nvalue = [0, 2, 0]", fillcolor="#39e581"] ;
538 -> 539 ;
540 [label="b4 <= 0.5\ngini = 0.375\nsamples = 8\nvalue = [0, 2, 6]", fillcolor="#ab7bee"] ;
538 -> 540 ;
541 [label="gini = 0.0\nsamples = 5\nvalue = [0, 0, 5]", fillcolor="#8139e5"] ;
540 -> 541 ;
542 [label="f1 <= 0.5\ngini = 0.444\nsamples = 3\nvalue = [0, 2, 1]", fillcolor="#9cf2c0"] ;
540 -> 542 ;
543 [label="gini = 0.0\nsamples = 2\nvalue = [0, 2, 0]", fillcolor="#39e581"] ;
542 -> 543 ;
544 [label="gini = 0.0\nsamples = 1\nvalue = [0, 0, 1]", fillcolor="#8139e5"] ;
542 -> 544 ;
545 [label="d2 <= 0.5\ngini = 0.245\nsamples = 7\nvalue = [1, 0, 6]", fillcolor="#965ae9"] ;
537 -> 545 ;
546 [label="gini = 0.0\nsamples = 4\nvalue = [0, 0, 4]", fillcolor="#8139e5"] ;
545 -> 546 ;
547 [label="a2 <= -0.5\ngini = 0.444\nsamples = 3\nvalue = [1, 0, 2]", fillcolor="#c09cf2"] ;
545 -> 547 ;
548 [label="gini = 0.0\nsamples = 1\nvalue = [1, 0, 0]", fillcolor="#e58139"] ;
547 -> 548 ;
549 [label="gini = 0.0\nsamples = 2\nvalue = [0, 0, 2]", fillcolor="#8139e5"] ;
547 -> 549 ;
550 [label="b5 <= 0.5\ngini = 0.577\nsamples = 42\nvalue = [7, 24, 11]", fillcolor="#acf4ca"] ;
532 -> 550 ;
551 [label="g4 <= -0.5\ngini = 0.536\nsamples = 35\nvalue = [6, 22, 7]", fillcolor="#95f1bc"] ;
550 -> 551 ;
552 [label="gini = 0.0\nsamples = 1\nvalue = [1, 0, 0]", fillcolor="#e58139"] ;
551 -> 552 ;
553 [label="a3 <= -0.5\ngini = 0.517\nsamples = 34\nvalue = [5, 22, 7]", fillcolor="#91f1b9"] ;
551 -> 553 ;
554 [label="gini = 0.0\nsamples = 1\nvalue = [1, 0, 0]", fillcolor="#e58139"] ;
553 -> 554 ;
555 [label="e2 <= -0.5\ngini = 0.496\nsamples = 33\nvalue = [4, 22, 7]", fillcolor="#8df0b6"] ;
553 -> 555 ;
556 [label="g2 <= 0.5\ngini = 0.625\nsamples = 4\nvalue = [1, 1, 2]", fillcolor="#d5bdf6"] ;
555 -> 556 ;
557 [label="c1 <= 0.5\ngini = 0.5\nsamples = 2\nvalue = [1, 1, 0]", fillcolor="#ffffff"] ;
556 -> 557 ;
558 [label="gini = 0.0\nsamples = 1\nvalue = [1, 0, 0]", fillcolor="#e58139"] ;
557 -> 558 ;
559 [label="gini = 0.0\nsamples = 1\nvalue = [0, 1, 0]", fillcolor="#39e581"] ;
557 -> 559 ;
560 [label="gini = 0.0\nsamples = 2\nvalue = [0, 0, 2]", fillcolor="#8139e5"] ;
556 -> 560 ;
561 [label="e3 <= -0.5\ngini = 0.435\nsamples = 29\nvalue = [3, 21, 5]", fillcolor="#7beeab"] ;
555 -> 561 ;
562 [label="gini = 0.0\nsamples = 1\nvalue = [0, 0, 1]", fillcolor="#8139e5"] ;
561 -> 562 ;
563 [label="a2 <= -0.5\ngini = 0.406\nsamples = 28\nvalue = [3, 21, 4]", fillcolor="#73eda6"] ;
561 -> 563 ;
564 [label="c1 <= 0.5\ngini = 0.567\nsamples = 17\nvalue = [3, 10, 4]", fillcolor="#a4f3c5"] ;
563 -> 564 ;
565 [label="f1 <= 0.5\ngini = 0.439\nsamples = 14\nvalue = [1, 10, 3]", fillcolor="#81eeaf"] ;
564 -> 565 ;
566 [label="e1 <= 0.5\ngini = 0.219\nsamples = 8\nvalue = [1, 7, 0]", fillcolor="#55e993"] ;
565 -> 566 ;
567 [label="gini = 0.0\nsamples = 5\nvalue = [0, 5, 0]", fillcolor="#39e581"] ;
566 -> 567 ;
568 [label="e2 <= 0.5\ngini = 0.444\nsamples = 3\nvalue = [1, 2, 0]", fillcolor="#9cf2c0"] ;
566 -> 568 ;
569 [label="gini = 0.0\nsamples = 1\nvalue = [1, 0, 0]", fillcolor="#e58139"] ;
568 -> 569 ;
570 [label="gini = 0.0\nsamples = 2\nvalue = [0, 2, 0]", fillcolor="#39e581"] ;
568 -> 570 ;
571 [label="e1 <= 0.5\ngini = 0.5\nsamples = 6\nvalue = [0, 3, 3]", fillcolor="#ffffff"] ;
565 -> 571 ;
572 [label="a3 <= 0.5\ngini = 0.375\nsamples = 4\nvalue = [0, 3, 1]", fillcolor="#7beeab"] ;
571 -> 572 ;
573 [label="gini = 0.0\nsamples = 1\nvalue = [0, 0, 1]", fillcolor="#8139e5"] ;
572 -> 573 ;
574 [label="gini = 0.0\nsamples = 3\nvalue = [0, 3, 0]", fillcolor="#39e581"] ;
572 -> 574 ;
575 [label="gini = 0.0\nsamples = 2\nvalue = [0, 0, 2]", fillcolor="#8139e5"] ;
571 -> 575 ;
576 [label="a3 <= 0.5\ngini = 0.444\nsamples = 3\nvalue = [2, 0, 1]", fillcolor="#f2c09c"] ;
564 -> 576 ;
577 [label="gini = 0.0\nsamples = 2\nvalue = [2, 0, 0]", fillcolor="#e58139"] ;
576 -> 577 ;
578 [label="gini = 0.0\nsamples = 1\nvalue = [0, 0, 1]", fillcolor="#8139e5"] ;
576 -> 578 ;
579 [label="gini = 0.0\nsamples = 11\nvalue = [0, 11, 0]", fillcolor="#39e581"] ;
563 -> 579 ;
580 [label="e1 <= 0.5\ngini = 0.571\nsamples = 7\nvalue = [1, 2, 4]", fillcolor="#cdb0f5"] ;
550 -> 580 ;
581 [label="b1 <= 0.0\ngini = 0.444\nsamples = 6\nvalue = [0, 2, 4]", fillcolor="#c09cf2"] ;
580 -> 581 ;
582 [label="gini = 0.0\nsamples = 3\nvalue = [0, 0, 3]", fillcolor="#8139e5"] ;
581 -> 582 ;
583 [label="c1 <= 0.5\ngini = 0.444\nsamples = 3\nvalue = [0, 2, 1]", fillcolor="#9cf2c0"] ;
581 -> 583 ;
584 [label="gini = 0.0\nsamples = 2\nvalue = [0, 2, 0]", fillcolor="#39e581"] ;
583 -> 584 ;
585 [label="gini = 0.0\nsamples = 1\nvalue = [0, 0, 1]", fillcolor="#8139e5"] ;
583 -> 585 ;
586 [label="gini = 0.0\nsamples = 1\nvalue = [1, 0, 0]", fillcolor="#e58139"] ;
580 -> 586 ;
587 [label="f4 <= -0.5\ngini = 0.535\nsamples = 34\nvalue = [4, 21, 9]", fillcolor="#a0f3c3"] ;
437 -> 587 ;
588 [label="gini = 0.0\nsamples = 3\nvalue = [0, 0, 3]", fillcolor="#8139e5"] ;
587 -> 588 ;
589 [label="b3 <= -0.5\ngini = 0.487\nsamples = 31\nvalue = [4, 21, 6]", fillcolor="#88efb3"] ;
587 -> 589 ;
590 [label="b1 <= 0.0\ngini = 0.375\nsamples = 4\nvalue = [0, 1, 3]", fillcolor="#ab7bee"] ;
589 -> 590 ;
591 [label="gini = 0.0\nsamples = 1\nvalue = [0, 1, 0]", fillcolor="#39e581"] ;
590 -> 591 ;
592 [label="gini = 0.0\nsamples = 3\nvalue = [0, 0, 3]", fillcolor="#8139e5"] ;
590 -> 592 ;
593 [label="e1 <= 0.5\ngini = 0.417\nsamples = 27\nvalue = [4, 20, 3]", fillcolor="#75eda7"] ;
589 -> 593 ;
594 [label="g4 <= 0.5\ngini = 0.266\nsamples = 19\nvalue = [3, 16, 0]", fillcolor="#5eea99"] ;
593 -> 594 ;
595 [label="d1 <= -0.5\ngini = 0.198\nsamples = 18\nvalue = [2, 16, 0]", fillcolor="#52e891"] ;
594 -> 595 ;
596 [label="b1 <= 0.5\ngini = 0.444\nsamples = 6\nvalue = [2, 4, 0]", fillcolor="#9cf2c0"] ;
595 -> 596 ;
597 [label="gini = 0.0\nsamples = 2\nvalue = [0, 2, 0]", fillcolor="#39e581"] ;
596 -> 597 ;
598 [label="a2 <= -0.5\ngini = 0.5\nsamples = 4\nvalue = [2, 2, 0]", fillcolor="#ffffff"] ;
596 -> 598 ;
599 [label="b2 <= 0.5\ngini = 0.444\nsamples = 3\nvalue = [2, 1, 0]", fillcolor="#f2c09c"] ;
598 -> 599 ;
600 [label="gini = 0.0\nsamples = 2\nvalue = [2, 0, 0]", fillcolor="#e58139"] ;
599 -> 600 ;
601 [label="gini = 0.0\nsamples = 1\nvalue = [0, 1, 0]", fillcolor="#39e581"] ;
599 -> 601 ;
602 [label="gini = 0.0\nsamples = 1\nvalue = [0, 1, 0]", fillcolor="#39e581"] ;
598 -> 602 ;
603 [label="gini = 0.0\nsamples = 12\nvalue = [0, 12, 0]", fillcolor="#39e581"] ;
595 -> 603 ;
604 [label="gini = 0.0\nsamples = 1\nvalue = [1, 0, 0]", fillcolor="#e58139"] ;
594 -> 604 ;
605 [label="e2 <= 0.5\ngini = 0.594\nsamples = 8\nvalue = [1, 4, 3]", fillcolor="#d7fae6"] ;
593 -> 605 ;
606 [label="g2 <= 0.5\ngini = 0.48\nsamples = 5\nvalue = [0, 2, 3]", fillcolor="#d5bdf6"] ;
605 -> 606 ;
607 [label="c1 <= -0.5\ngini = 0.444\nsamples = 3\nvalue = [0, 2, 1]", fillcolor="#9cf2c0"] ;
606 -> 607 ;
608 [label="gini = 0.0\nsamples = 1\nvalue = [0, 0, 1]", fillcolor="#8139e5"] ;
607 -> 608 ;
609 [label="gini = 0.0\nsamples = 2\nvalue = [0, 2, 0]", fillcolor="#39e581"] ;
607 -> 609 ;
610 [label="gini = 0.0\nsamples = 2\nvalue = [0, 0, 2]", fillcolor="#8139e5"] ;
606 -> 610 ;
611 [label="e3 <= -0.5\ngini = 0.444\nsamples = 3\nvalue = [1, 2, 0]", fillcolor="#9cf2c0"] ;
605 -> 611 ;
612 [label="c1 <= -0.5\ngini = 0.5\nsamples = 2\nvalue = [1, 1, 0]", fillcolor="#ffffff"] ;
611 -> 612 ;
613 [label="gini = 0.0\nsamples = 1\nvalue = [1, 0, 0]", fillcolor="#e58139"] ;
612 -> 613 ;
614 [label="gini = 0.0\nsamples = 1\nvalue = [0, 1, 0]", fillcolor="#39e581"] ;
612 -> 614 ;
615 [label="gini = 0.0\nsamples = 1\nvalue = [0, 1, 0]", fillcolor="#39e581"] ;
611 -> 615 ;
616 [label="b4 <= -0.5\ngini = 0.516\nsamples = 52\nvalue = [5, 33, 14]", fillcolor="#9cf2c0"] ;
422 -> 616 ;
617 [label="e1 <= 0.5\ngini = 0.648\nsamples = 16\nvalue = [4, 5, 7]", fillcolor="#e8dbfa"] ;
616 -> 617 ;
618 [label="d1 <= -0.5\ngini = 0.602\nsamples = 14\nvalue = [2, 5, 7]", fillcolor="#e3d3f9"] ;
617 -> 618 ;
619 [label="gini = 0.0\nsamples = 3\nvalue = [0, 0, 3]", fillcolor="#8139e5"] ;
618 -> 619 ;
620 [label="a2 <= -0.5\ngini = 0.628\nsamples = 11\nvalue = [2, 5, 4]", fillcolor="#e3fbed"] ;
618 -> 620 ;
621 [label="f1 <= 0.5\ngini = 0.444\nsamples = 3\nvalue = [1, 0, 2]", fillcolor="#c09cf2"] ;
620 -> 621 ;
622 [label="gini = 0.0\nsamples = 2\nvalue = [0, 0, 2]", fillcolor="#8139e5"] ;
621 -> 622 ;
623 [label="gini = 0.0\nsamples = 1\nvalue = [1, 0, 0]", fillcolor="#e58139"] ;
621 -> 623 ;
624 [label="f1 <= 0.5\ngini = 0.531\nsamples = 8\nvalue = [1, 5, 2]", fillcolor="#9cf2c0"] ;
620 -> 624 ;
625 [label="c1 <= 0.5\ngini = 0.375\nsamples = 4\nvalue = [1, 3, 0]", fillcolor="#7beeab"] ;
624 -> 625 ;
626 [label="gini = 0.0\nsamples = 2\nvalue = [0, 2, 0]", fillcolor="#39e581"] ;
625 -> 626 ;
627 [label="b5 <= 0.5\ngini = 0.5\nsamples = 2\nvalue = [1, 1, 0]", fillcolor="#ffffff"] ;
625 -> 627 ;
628 [label="gini = 0.0\nsamples = 1\nvalue = [1, 0, 0]", fillcolor="#e58139"] ;
627 -> 628 ;
629 [label="gini = 0.0\nsamples = 1\nvalue = [0, 1, 0]", fillcolor="#39e581"] ;
627 -> 629 ;
630 [label="b5 <= 0.5\ngini = 0.5\nsamples = 4\nvalue = [0, 2, 2]", fillcolor="#ffffff"] ;
624 -> 630 ;
631 [label="g2 <= 0.5\ngini = 0.444\nsamples = 3\nvalue = [0, 2, 1]", fillcolor="#9cf2c0"] ;
630 -> 631 ;
632 [label="gini = 0.0\nsamples = 2\nvalue = [0, 2, 0]", fillcolor="#39e581"] ;
631 -> 632 ;
633 [label="gini = 0.0\nsamples = 1\nvalue = [0, 0, 1]", fillcolor="#8139e5"] ;
631 -> 633 ;
634 [label="gini = 0.0\nsamples = 1\nvalue = [0, 0, 1]", fillcolor="#8139e5"] ;
630 -> 634 ;
635 [label="gini = 0.0\nsamples = 2\nvalue = [2, 0, 0]", fillcolor="#e58139"] ;
617 -> 635 ;
636 [label="a2 <= -0.5\ngini = 0.356\nsamples = 36\nvalue = [1, 28, 7]", fillcolor="#70eca4"] ;
616 -> 636 ;
637 [label="gini = 0.0\nsamples = 12\nvalue = [0, 12, 0]", fillcolor="#39e581"] ;
636 -> 637 ;
638 [label="d2 <= 0.5\ngini = 0.469\nsamples = 24\nvalue = [1, 16, 7]", fillcolor="#96f1bc"] ;
636 -> 638 ;
639 [label="d1 <= -0.5\ngini = 0.526\nsamples = 19\nvalue = [1, 11, 7]", fillcolor="#bdf6d5"] ;
638 -> 639 ;
640 [label="gini = 0.0\nsamples = 3\nvalue = [0, 0, 3]", fillcolor="#8139e5"] ;
639 -> 640 ;
641 [label="b6 <= 0.5\ngini = 0.461\nsamples = 16\nvalue = [1, 11, 4]", fillcolor="#8cf0b6"] ;
639 -> 641 ;
642 [label="g2 <= 0.5\ngini = 0.418\nsamples = 15\nvalue = [1, 11, 3]", fillcolor="#7beeab"] ;
641 -> 642 ;
643 [label="f1 <= 0.5\ngini = 0.198\nsamples = 9\nvalue = [0, 8, 1]", fillcolor="#52e891"] ;
642 -> 643 ;
644 [label="gini = 0.0\nsamples = 7\nvalue = [0, 7, 0]", fillcolor="#39e581"] ;
643 -> 644 ;
645 [label="f2 <= 0.5\ngini = 0.5\nsamples = 2\nvalue = [0, 1, 1]", fillcolor="#ffffff"] ;
643 -> 645 ;
646 [label="gini = 0.0\nsamples = 1\nvalue = [0, 1, 0]", fillcolor="#39e581"] ;
645 -> 646 ;
647 [label="gini = 0.0\nsamples = 1\nvalue = [0, 0, 1]", fillcolor="#8139e5"] ;
645 -> 647 ;
648 [label="c1 <= 0.5\ngini = 0.611\nsamples = 6\nvalue = [1, 3, 2]", fillcolor="#cef8e0"] ;
642 -> 648 ;
649 [label="g3 <= -0.5\ngini = 0.56\nsamples = 5\nvalue = [1, 3, 1]", fillcolor="#9cf2c0"] ;
648 -> 649 ;
650 [label="f1 <= 0.5\ngini = 0.375\nsamples = 4\nvalue = [1, 3, 0]", fillcolor="#7beeab"] ;
649 -> 650 ;
651 [label="b1 <= 0.0\ngini = 0.5\nsamples = 2\nvalue = [1, 1, 0]", fillcolor="#ffffff"] ;
650 -> 651 ;
652 [label="gini = 0.0\nsamples = 1\nvalue = [1, 0, 0]", fillcolor="#e58139"] ;
651 -> 652 ;
653 [label="gini = 0.0\nsamples = 1\nvalue = [0, 1, 0]", fillcolor="#39e581"] ;
651 -> 653 ;
654 [label="gini = 0.0\nsamples = 2\nvalue = [0, 2, 0]", fillcolor="#39e581"] ;
650 -> 654 ;
655 [label="gini = 0.0\nsamples = 1\nvalue = [0, 0, 1]", fillcolor="#8139e5"] ;
649 -> 655 ;
656 [label="gini = 0.0\nsamples = 1\nvalue = [0, 0, 1]", fillcolor="#8139e5"] ;
648 -> 656 ;
657 [label="gini = 0.0\nsamples = 1\nvalue = [0, 0, 1]", fillcolor="#8139e5"] ;
641 -> 657 ;
658 [label="gini = 0.0\nsamples = 5\nvalue = [0, 5, 0]", fillcolor="#39e581"] ;
638 -> 658 ;
659 [label="e3 <= -0.5\ngini = 0.578\nsamples = 649\nvalue = [71, 235, 343]", fillcolor="#decbf8"] ;
415 -> 659 ;
660 [label="e2 <= 0.0\ngini = 0.409\nsamples = 75\nvalue = [3, 17, 55]", fillcolor="#ac7dee"] ;
659 -> 660 ;
661 [label="e4 <= -0.5\ngini = 0.067\nsamples = 29\nvalue = [1, 0, 28]", fillcolor="#8640e6"] ;
660 -> 661 ;
662 [label="b2 <= 0.5\ngini = 0.5\nsamples = 2\nvalue = [1, 0, 1]", fillcolor="#ffffff"] ;
661 -> 662 ;
663 [label="gini = 0.0\nsamples = 1\nvalue = [0, 0, 1]", fillcolor="#8139e5"] ;
662 -> 663 ;
664 [label="gini = 0.0\nsamples = 1\nvalue = [1, 0, 0]", fillcolor="#e58139"] ;
662 -> 664 ;
665 [label="gini = 0.0\nsamples = 27\nvalue = [0, 0, 27]", fillcolor="#8139e5"] ;
661 -> 665 ;
666 [label="f1 <= 0.5\ngini = 0.517\nsamples = 46\nvalue = [2, 17, 27]", fillcolor="#d4bbf6"] ;
660 -> 666 ;
667 [label="b4 <= 0.5\ngini = 0.554\nsamples = 34\nvalue = [2, 16, 16]", fillcolor="#ffffff"] ;
666 -> 667 ;
668 [label="a3 <= 0.5\ngini = 0.529\nsamples = 33\nvalue = [1, 16, 16]", fillcolor="#ffffff"] ;
667 -> 668 ;
669 [label="a2 <= -0.5\ngini = 0.526\nsamples = 23\nvalue = [1, 13, 9]", fillcolor="#c6f8db"] ;
668 -> 669 ;
670 [label="c1 <= -0.5\ngini = 0.314\nsamples = 11\nvalue = [1, 9, 1]", fillcolor="#61ea9a"] ;
669 -> 670 ;
671 [label="gini = 0.0\nsamples = 1\nvalue = [1, 0, 0]", fillcolor="#e58139"] ;
670 -> 671 ;
672 [label="d1 <= -0.5\ngini = 0.18\nsamples = 10\nvalue = [0, 9, 1]", fillcolor="#4fe88f"] ;
670 -> 672 ;
673 [label="d2 <= 0.5\ngini = 0.5\nsamples = 2\nvalue = [0, 1, 1]", fillcolor="#ffffff"] ;
672 -> 673 ;
674 [label="gini = 0.0\nsamples = 1\nvalue = [0, 0, 1]", fillcolor="#8139e5"] ;
673 -> 674 ;
675 [label="gini = 0.0\nsamples = 1\nvalue = [0, 1, 0]", fillcolor="#39e581"] ;
673 -> 675 ;
676 [label="gini = 0.0\nsamples = 8\nvalue = [0, 8, 0]", fillcolor="#39e581"] ;
672 -> 676 ;
677 [label="c1 <= -0.5\ngini = 0.444\nsamples = 12\nvalue = [0, 4, 8]", fillcolor="#c09cf2"] ;
669 -> 677 ;
678 [label="b1 <= 0.5\ngini = 0.48\nsamples = 5\nvalue = [0, 3, 2]", fillcolor="#bdf6d5"] ;
677 -> 678 ;
679 [label="gini = 0.0\nsamples = 1\nvalue = [0, 0, 1]", fillcolor="#8139e5"] ;
678 -> 679 ;
680 [label="e5 <= 0.5\ngini = 0.375\nsamples = 4\nvalue = [0, 3, 1]", fillcolor="#7beeab"] ;
678 -> 680 ;
681 [label="gini = 0.0\nsamples = 3\nvalue = [0, 3, 0]", fillcolor="#39e581"] ;
680 -> 681 ;
682 [label="gini = 0.0\nsamples = 1\nvalue = [0, 0, 1]", fillcolor="#8139e5"] ;
680 -> 682 ;
683 [label="e5 <= -0.5\ngini = 0.245\nsamples = 7\nvalue = [0, 1, 6]", fillcolor="#965ae9"] ;
677 -> 683 ;
684 [label="gini = 0.0\nsamples = 1\nvalue = [0, 1, 0]", fillcolor="#39e581"] ;
683 -> 684 ;
685 [label="gini = 0.0\nsamples = 6\nvalue = [0, 0, 6]", fillcolor="#8139e5"] ;
683 -> 685 ;
686 [label="e4 <= 0.5\ngini = 0.42\nsamples = 10\nvalue = [0, 3, 7]", fillcolor="#b78ef0"] ;
668 -> 686 ;
687 [label="e4 <= -0.5\ngini = 0.245\nsamples = 7\nvalue = [0, 1, 6]", fillcolor="#965ae9"] ;
686 -> 687 ;
688 [label="gini = 0.0\nsamples = 1\nvalue = [0, 1, 0]", fillcolor="#39e581"] ;
687 -> 688 ;
689 [label="gini = 0.0\nsamples = 6\nvalue = [0, 0, 6]", fillcolor="#8139e5"] ;
687 -> 689 ;
690 [label="c1 <= -0.5\ngini = 0.444\nsamples = 3\nvalue = [0, 2, 1]", fillcolor="#9cf2c0"] ;
686 -> 690 ;
691 [label="gini = 0.0\nsamples = 1\nvalue = [0, 0, 1]", fillcolor="#8139e5"] ;
690 -> 691 ;
692 [label="gini = 0.0\nsamples = 2\nvalue = [0, 2, 0]", fillcolor="#39e581"] ;
690 -> 692 ;
693 [label="gini = 0.0\nsamples = 1\nvalue = [1, 0, 0]", fillcolor="#e58139"] ;
667 -> 693 ;
694 [label="a2 <= -0.5\ngini = 0.153\nsamples = 12\nvalue = [0, 1, 11]", fillcolor="#8c4be7"] ;
666 -> 694 ;
695 [label="e4 <= -0.5\ngini = 0.375\nsamples = 4\nvalue = [0, 1, 3]", fillcolor="#ab7bee"] ;
694 -> 695 ;
696 [label="gini = 0.0\nsamples = 1\nvalue = [0, 1, 0]", fillcolor="#39e581"] ;
695 -> 696 ;
697 [label="gini = 0.0\nsamples = 3\nvalue = [0, 0, 3]", fillcolor="#8139e5"] ;
695 -> 697 ;
698 [label="gini = 0.0\nsamples = 8\nvalue = [0, 0, 8]", fillcolor="#8139e5"] ;
694 -> 698 ;
699 [label="b4 <= -0.5\ngini = 0.59\nsamples = 574\nvalue = [68, 218, 288]", fillcolor="#e6d8fa"] ;
659 -> 699 ;
700 [label="b6 <= -0.5\ngini = 0.432\nsamples = 55\nvalue = [6, 9, 40]", fillcolor="#aa7aed"] ;
699 -> 700 ;
701 [label="c1 <= 0.5\ngini = 0.5\nsamples = 2\nvalue = [1, 1, 0]", fillcolor="#ffffff"] ;
700 -> 701 ;
702 [label="gini = 0.0\nsamples = 1\nvalue = [1, 0, 0]", fillcolor="#e58139"] ;
701 -> 702 ;
703 [label="gini = 0.0\nsamples = 1\nvalue = [0, 1, 0]", fillcolor="#39e581"] ;
701 -> 703 ;
704 [label="d2 <= 0.5\ngini = 0.399\nsamples = 53\nvalue = [5, 8, 40]", fillcolor="#a572ed"] ;
700 -> 704 ;
705 [label="e2 <= 0.5\ngini = 0.367\nsamples = 50\nvalue = [5, 6, 39]", fillcolor="#a06aec"] ;
704 -> 705 ;
706 [label="c1 <= -0.5\ngini = 0.328\nsamples = 47\nvalue = [4, 5, 38]", fillcolor="#9c63eb"] ;
705 -> 706 ;
707 [label="e1 <= 0.5\ngini = 0.48\nsamples = 5\nvalue = [2, 0, 3]", fillcolor="#d5bdf6"] ;
706 -> 707 ;
708 [label="gini = 0.0\nsamples = 3\nvalue = [0, 0, 3]", fillcolor="#8139e5"] ;
707 -> 708 ;
709 [label="gini = 0.0\nsamples = 2\nvalue = [2, 0, 0]", fillcolor="#e58139"] ;
707 -> 709 ;
710 [label="b5 <= -0.5\ngini = 0.289\nsamples = 42\nvalue = [2, 5, 35]", fillcolor="#995eea"] ;
706 -> 710 ;
711 [label="f2 <= 0.5\ngini = 0.444\nsamples = 6\nvalue = [2, 0, 4]", fillcolor="#c09cf2"] ;
710 -> 711 ;
712 [label="b2 <= 0.0\ngini = 0.48\nsamples = 5\nvalue = [2, 0, 3]", fillcolor="#d5bdf6"] ;
711 -> 712 ;
713 [label="c1 <= 0.5\ngini = 0.5\nsamples = 2\nvalue = [1, 0, 1]", fillcolor="#ffffff"] ;
712 -> 713 ;
714 [label="gini = 0.0\nsamples = 1\nvalue = [1, 0, 0]", fillcolor="#e58139"] ;
713 -> 714 ;
715 [label="gini = 0.0\nsamples = 1\nvalue = [0, 0, 1]", fillcolor="#8139e5"] ;
713 -> 715 ;
716 [label="e1 <= 0.5\ngini = 0.444\nsamples = 3\nvalue = [1, 0, 2]", fillcolor="#c09cf2"] ;
712 -> 716 ;
717 [label="gini = 0.0\nsamples = 1\nvalue = [1, 0, 0]", fillcolor="#e58139"] ;
716 -> 717 ;
718 [label="gini = 0.0\nsamples = 2\nvalue = [0, 0, 2]", fillcolor="#8139e5"] ;
716 -> 718 ;
719 [label="gini = 0.0\nsamples = 1\nvalue = [0, 0, 1]", fillcolor="#8139e5"] ;
711 -> 719 ;
720 [label="e3 <= 0.5\ngini = 0.239\nsamples = 36\nvalue = [0, 5, 31]", fillcolor="#9559e9"] ;
710 -> 720 ;
721 [label="c1 <= 0.5\ngini = 0.208\nsamples = 34\nvalue = [0, 4, 30]", fillcolor="#9253e8"] ;
720 -> 721 ;
722 [label="a3 <= 0.5\ngini = 0.087\nsamples = 22\nvalue = [0, 1, 21]", fillcolor="#8742e6"] ;
721 -> 722 ;
723 [label="gini = 0.0\nsamples = 17\nvalue = [0, 0, 17]", fillcolor="#8139e5"] ;
722 -> 723 ;
724 [label="b2 <= 0.0\ngini = 0.32\nsamples = 5\nvalue = [0, 1, 4]", fillcolor="#a06aec"] ;
722 -> 724 ;
725 [label="gini = 0.0\nsamples = 1\nvalue = [0, 1, 0]", fillcolor="#39e581"] ;
724 -> 725 ;
726 [label="gini = 0.0\nsamples = 4\nvalue = [0, 0, 4]", fillcolor="#8139e5"] ;
724 -> 726 ;
727 [label="b1 <= 0.0\ngini = 0.375\nsamples = 12\nvalue = [0, 3, 9]", fillcolor="#ab7bee"] ;
721 -> 727 ;
728 [label="e1 <= 0.5\ngini = 0.5\nsamples = 6\nvalue = [0, 3, 3]", fillcolor="#ffffff"] ;
727 -> 728 ;
729 [label="b3 <= 0.0\ngini = 0.375\nsamples = 4\nvalue = [0, 3, 1]", fillcolor="#7beeab"] ;
728 -> 729 ;
730 [label="gini = 0.0\nsamples = 1\nvalue = [0, 0, 1]", fillcolor="#8139e5"] ;
729 -> 730 ;
731 [label="gini = 0.0\nsamples = 3\nvalue = [0, 3, 0]", fillcolor="#39e581"] ;
729 -> 731 ;
732 [label="gini = 0.0\nsamples = 2\nvalue = [0, 0, 2]", fillcolor="#8139e5"] ;
728 -> 732 ;
733 [label="gini = 0.0\nsamples = 6\nvalue = [0, 0, 6]", fillcolor="#8139e5"] ;
727 -> 733 ;
734 [label="b1 <= 0.0\ngini = 0.5\nsamples = 2\nvalue = [0, 1, 1]", fillcolor="#ffffff"] ;
720 -> 734 ;
735 [label="gini = 0.0\nsamples = 1\nvalue = [0, 0, 1]", fillcolor="#8139e5"] ;
734 -> 735 ;
736 [label="gini = 0.0\nsamples = 1\nvalue = [0, 1, 0]", fillcolor="#39e581"] ;
734 -> 736 ;
737 [label="b2 <= 0.0\ngini = 0.667\nsamples = 3\nvalue = [1, 1, 1]", fillcolor="#ffffff"] ;
705 -> 737 ;
738 [label="b1 <= 0.0\ngini = 0.5\nsamples = 2\nvalue = [1, 1, 0]", fillcolor="#ffffff"] ;
737 -> 738 ;
739 [label="gini = 0.0\nsamples = 1\nvalue = [0, 1, 0]", fillcolor="#39e581"] ;
738 -> 739 ;
740 [label="gini = 0.0\nsamples = 1\nvalue = [1, 0, 0]", fillcolor="#e58139"] ;
738 -> 740 ;
741 [label="gini = 0.0\nsamples = 1\nvalue = [0, 0, 1]", fillcolor="#8139e5"] ;
737 -> 741 ;
742 [label="c1 <= 0.5\ngini = 0.444\nsamples = 3\nvalue = [0, 2, 1]", fillcolor="#9cf2c0"] ;
704 -> 742 ;
743 [label="gini = 0.0\nsamples = 2\nvalue = [0, 2, 0]", fillcolor="#39e581"] ;
742 -> 743 ;
744 [label="gini = 0.0\nsamples = 1\nvalue = [0, 0, 1]", fillcolor="#8139e5"] ;
742 -> 744 ;
745 [label="b3 <= 0.5\ngini = 0.595\nsamples = 519\nvalue = [62, 209, 248]", fillcolor="#efe6fc"] ;
699 -> 745 ;
746 [label="b2 <= -0.5\ngini = 0.597\nsamples = 432\nvalue = [58, 156, 218]", fillcolor="#e3d3f9"] ;
745 -> 746 ;
747 [label="c1 <= 0.5\ngini = 0.408\nsamples = 81\nvalue = [2, 20, 59]", fillcolor="#ae80ee"] ;
746 -> 747 ;
748 [label="e1 <= 0.5\ngini = 0.491\nsamples = 54\nvalue = [2, 18, 34]", fillcolor="#c7a7f3"] ;
747 -> 748 ;
749 [label="d2 <= 0.5\ngini = 0.571\nsamples = 21\nvalue = [2, 11, 8]", fillcolor="#d1f9e2"] ;
748 -> 749 ;
750 [label="d1 <= -0.5\ngini = 0.561\nsamples = 14\nvalue = [1, 6, 7]", fillcolor="#efe6fc"] ;
749 -> 750 ;
751 [label="gini = 0.0\nsamples = 3\nvalue = [0, 0, 3]", fillcolor="#8139e5"] ;
750 -> 751 ;
752 [label="a5 <= -0.5\ngini = 0.562\nsamples = 11\nvalue = [1, 6, 4]", fillcolor="#c6f8db"] ;
750 -> 752 ;
753 [label="f1 <= 0.5\ngini = 0.5\nsamples = 2\nvalue = [1, 0, 1]", fillcolor="#ffffff"] ;
752 -> 753 ;
754 [label="gini = 0.0\nsamples = 1\nvalue = [0, 0, 1]", fillcolor="#8139e5"] ;
753 -> 754 ;
755 [label="gini = 0.0\nsamples = 1\nvalue = [1, 0, 0]", fillcolor="#e58139"] ;
753 -> 755 ;
756 [label="f4 <= -0.5\ngini = 0.444\nsamples = 9\nvalue = [0, 6, 3]", fillcolor="#9cf2c0"] ;
752 -> 756 ;
757 [label="gini = 0.0\nsamples = 1\nvalue = [0, 0, 1]", fillcolor="#8139e5"] ;
756 -> 757 ;
758 [label="b5 <= 0.5\ngini = 0.375\nsamples = 8\nvalue = [0, 6, 2]", fillcolor="#7beeab"] ;
756 -> 758 ;
759 [label="f4 <= 0.5\ngini = 0.245\nsamples = 7\nvalue = [0, 6, 1]", fillcolor="#5ae996"] ;
758 -> 759 ;
760 [label="gini = 0.0\nsamples = 5\nvalue = [0, 5, 0]", fillcolor="#39e581"] ;
759 -> 760 ;
761 [label="c1 <= -0.5\ngini = 0.5\nsamples = 2\nvalue = [0, 1, 1]", fillcolor="#ffffff"] ;
759 -> 761 ;
762 [label="gini = 0.0\nsamples = 1\nvalue = [0, 0, 1]", fillcolor="#8139e5"] ;
761 -> 762 ;
763 [label="gini = 0.0\nsamples = 1\nvalue = [0, 1, 0]", fillcolor="#39e581"] ;
761 -> 763 ;
764 [label="gini = 0.0\nsamples = 1\nvalue = [0, 0, 1]", fillcolor="#8139e5"] ;
758 -> 764 ;
765 [label="b4 <= 0.5\ngini = 0.449\nsamples = 7\nvalue = [1, 5, 1]", fillcolor="#7beeab"] ;
749 -> 765 ;
766 [label="a3 <= 0.5\ngini = 0.278\nsamples = 6\nvalue = [1, 5, 0]", fillcolor="#61ea9a"] ;
765 -> 766 ;
767 [label="gini = 0.0\nsamples = 4\nvalue = [0, 4, 0]", fillcolor="#39e581"] ;
766 -> 767 ;
768 [label="f1 <= 0.5\ngini = 0.5\nsamples = 2\nvalue = [1, 1, 0]", fillcolor="#ffffff"] ;
766 -> 768 ;
769 [label="gini = 0.0\nsamples = 1\nvalue = [0, 1, 0]", fillcolor="#39e581"] ;
768 -> 769 ;
770 [label="gini = 0.0\nsamples = 1\nvalue = [1, 0, 0]", fillcolor="#e58139"] ;
768 -> 770 ;
771 [label="gini = 0.0\nsamples = 1\nvalue = [0, 0, 1]", fillcolor="#8139e5"] ;
765 -> 771 ;
772 [label="a5 <= -0.5\ngini = 0.334\nsamples = 33\nvalue = [0, 7, 26]", fillcolor="#a36eec"] ;
748 -> 772 ;
773 [label="gini = 0.0\nsamples = 1\nvalue = [0, 1, 0]", fillcolor="#39e581"] ;
772 -> 773 ;
774 [label="e2 <= 0.5\ngini = 0.305\nsamples = 32\nvalue = [0, 6, 26]", fillcolor="#9e67eb"] ;
772 -> 774 ;
775 [label="e3 <= 0.5\ngini = 0.165\nsamples = 22\nvalue = [0, 2, 20]", fillcolor="#8e4de8"] ;
774 -> 775 ;
776 [label="gini = 0.0\nsamples = 18\nvalue = [0, 0, 18]", fillcolor="#8139e5"] ;
775 -> 776 ;
777 [label="b1 <= 0.0\ngini = 0.5\nsamples = 4\nvalue = [0, 2, 2]", fillcolor="#ffffff"] ;
775 -> 777 ;
778 [label="gini = 0.0\nsamples = 2\nvalue = [0, 0, 2]", fillcolor="#8139e5"] ;
777 -> 778 ;
779 [label="gini = 0.0\nsamples = 2\nvalue = [0, 2, 0]", fillcolor="#39e581"] ;
777 -> 779 ;
780 [label="c1 <= -0.5\ngini = 0.48\nsamples = 10\nvalue = [0, 4, 6]", fillcolor="#d5bdf6"] ;
774 -> 780 ;
781 [label="gini = 0.0\nsamples = 2\nvalue = [0, 2, 0]", fillcolor="#39e581"] ;
780 -> 781 ;
782 [label="f3 <= -0.5\ngini = 0.375\nsamples = 8\nvalue = [0, 2, 6]", fillcolor="#ab7bee"] ;
780 -> 782 ;
783 [label="gini = 0.0\nsamples = 1\nvalue = [0, 1, 0]", fillcolor="#39e581"] ;
782 -> 783 ;
784 [label="a4 <= -0.5\ngini = 0.245\nsamples = 7\nvalue = [0, 1, 6]", fillcolor="#965ae9"] ;
782 -> 784 ;
785 [label="gini = 0.0\nsamples = 1\nvalue = [0, 1, 0]", fillcolor="#39e581"] ;
784 -> 785 ;
786 [label="gini = 0.0\nsamples = 6\nvalue = [0, 0, 6]", fillcolor="#8139e5"] ;
784 -> 786 ;
787 [label="f3 <= 0.5\ngini = 0.137\nsamples = 27\nvalue = [0, 2, 25]", fillcolor="#8b49e7"] ;
747 -> 787 ;
788 [label="f4 <= 0.5\ngini = 0.074\nsamples = 26\nvalue = [0, 1, 25]", fillcolor="#8641e6"] ;
787 -> 788 ;
789 [label="gini = 0.0\nsamples = 25\nvalue = [0, 0, 25]", fillcolor="#8139e5"] ;
788 -> 789 ;
790 [label="gini = 0.0\nsamples = 1\nvalue = [0, 1, 0]", fillcolor="#39e581"] ;
788 -> 790 ;
791 [label="gini = 0.0\nsamples = 1\nvalue = [0, 1, 0]", fillcolor="#39e581"] ;
787 -> 791 ;
792 [label="e4 <= 0.5\ngini = 0.619\nsamples = 351\nvalue = [56, 136, 159]", fillcolor="#f2eafc"] ;
746 -> 792 ;
793 [label="a6 <= 0.5\ngini = 0.619\nsamples = 342\nvalue = [56, 127, 159]", fillcolor="#ece2fb"] ;
792 -> 793 ;
794 [label="d1 <= -0.5\ngini = 0.625\nsamples = 319\nvalue = [54, 124, 141]", fillcolor="#f4eefd"] ;
793 -> 794 ;
795 [label="c1 <= -0.5\ngini = 0.566\nsamples = 141\nvalue = [14, 50, 77]", fillcolor="#dac4f7"] ;
794 -> 795 ;
796 [label="b5 <= 0.5\ngini = 0.512\nsamples = 17\nvalue = [4, 11, 2]", fillcolor="#94f1bb"] ;
795 -> 796 ;
797 [label="b2 <= 0.5\ngini = 0.461\nsamples = 16\nvalue = [4, 11, 1]", fillcolor="#8cf0b6"] ;
796 -> 797 ;
798 [label="e2 <= -0.5\ngini = 0.245\nsamples = 7\nvalue = [0, 6, 1]", fillcolor="#5ae996"] ;
797 -> 798 ;
799 [label="e3 <= 0.5\ngini = 0.5\nsamples = 2\nvalue = [0, 1, 1]", fillcolor="#ffffff"] ;
798 -> 799 ;
800 [label="gini = 0.0\nsamples = 1\nvalue = [0, 0, 1]", fillcolor="#8139e5"] ;
799 -> 800 ;
801 [label="gini = 0.0\nsamples = 1\nvalue = [0, 1, 0]", fillcolor="#39e581"] ;
799 -> 801 ;
802 [label="gini = 0.0\nsamples = 5\nvalue = [0, 5, 0]", fillcolor="#39e581"] ;
798 -> 802 ;
803 [label="d2 <= 0.5\ngini = 0.494\nsamples = 9\nvalue = [4, 5, 0]", fillcolor="#d7fae6"] ;
797 -> 803 ;
804 [label="gini = 0.0\nsamples = 2\nvalue = [2, 0, 0]", fillcolor="#e58139"] ;
803 -> 804 ;
805 [label="e2 <= -0.5\ngini = 0.408\nsamples = 7\nvalue = [2, 5, 0]", fillcolor="#88efb3"] ;
803 -> 805 ;
806 [label="gini = 0.0\nsamples = 1\nvalue = [1, 0, 0]", fillcolor="#e58139"] ;
805 -> 806 ;
807 [label="f1 <= 0.5\ngini = 0.278\nsamples = 6\nvalue = [1, 5, 0]", fillcolor="#61ea9a"] ;
805 -> 807 ;
808 [label="gini = 0.0\nsamples = 4\nvalue = [0, 4, 0]", fillcolor="#39e581"] ;
807 -> 808 ;
809 [label="d3 <= -0.5\ngini = 0.5\nsamples = 2\nvalue = [1, 1, 0]", fillcolor="#ffffff"] ;
807 -> 809 ;
810 [label="gini = 0.0\nsamples = 1\nvalue = [1, 0, 0]", fillcolor="#e58139"] ;
809 -> 810 ;
811 [label="gini = 0.0\nsamples = 1\nvalue = [0, 1, 0]", fillcolor="#39e581"] ;
809 -> 811 ;
812 [label="gini = 0.0\nsamples = 1\nvalue = [0, 0, 1]", fillcolor="#8139e5"] ;
796 -> 812 ;
813 [label="b1 <= 0.5\ngini = 0.529\nsamples = 124\nvalue = [10, 39, 75]", fillcolor="#caabf4"] ;
795 -> 813 ;
814 [label="e1 <= 0.5\ngini = 0.579\nsamples = 73\nvalue = [7, 30, 36]", fillcolor="#ede3fb"] ;
813 -> 814 ;
815 [label="d2 <= 0.5\ngini = 0.542\nsamples = 34\nvalue = [5, 21, 8]", fillcolor="#9cf2c0"] ;
814 -> 815 ;
816 [label="e1 <= -0.5\ngini = 0.648\nsamples = 16\nvalue = [4, 7, 5]", fillcolor="#dbfae8"] ;
815 -> 816 ;
817 [label="f4 <= 0.5\ngini = 0.245\nsamples = 7\nvalue = [1, 6, 0]", fillcolor="#5ae996"] ;
816 -> 817 ;
818 [label="gini = 0.0\nsamples = 6\nvalue = [0, 6, 0]", fillcolor="#39e581"] ;
817 -> 818 ;
819 [label="gini = 0.0\nsamples = 1\nvalue = [1, 0, 0]", fillcolor="#e58139"] ;
817 -> 819 ;
820 [label="a3 <= -0.5\ngini = 0.568\nsamples = 9\nvalue = [3, 1, 5]", fillcolor="#d5bdf6"] ;
816 -> 820 ;
821 [label="gini = 0.0\nsamples = 1\nvalue = [0, 1, 0]", fillcolor="#39e581"] ;
820 -> 821 ;
822 [label="f1 <= 0.0\ngini = 0.469\nsamples = 8\nvalue = [3, 0, 5]", fillcolor="#cdb0f5"] ;
820 -> 822 ;
823 [label="gini = 0.0\nsamples = 1\nvalue = [1, 0, 0]", fillcolor="#e58139"] ;
822 -> 823 ;
824 [label="b2 <= 0.5\ngini = 0.408\nsamples = 7\nvalue = [2, 0, 5]", fillcolor="#b388ef"] ;
822 -> 824 ;
825 [label="b1 <= -0.5\ngini = 0.278\nsamples = 6\nvalue = [1, 0, 5]", fillcolor="#9a61ea"] ;
824 -> 825 ;
826 [label="a3 <= 0.5\ngini = 0.444\nsamples = 3\nvalue = [1, 0, 2]", fillcolor="#c09cf2"] ;
825 -> 826 ;
827 [label="gini = 0.0\nsamples = 1\nvalue = [0, 0, 1]", fillcolor="#8139e5"] ;
826 -> 827 ;
828 [label="f2 <= 0.5\ngini = 0.5\nsamples = 2\nvalue = [1, 0, 1]", fillcolor="#ffffff"] ;
826 -> 828 ;
829 [label="gini = 0.0\nsamples = 1\nvalue = [0, 0, 1]", fillcolor="#8139e5"] ;
828 -> 829 ;
830 [label="gini = 0.0\nsamples = 1\nvalue = [1, 0, 0]", fillcolor="#e58139"] ;
828 -> 830 ;
831 [label="gini = 0.0\nsamples = 3\nvalue = [0, 0, 3]", fillcolor="#8139e5"] ;
825 -> 831 ;
832 [label="gini = 0.0\nsamples = 1\nvalue = [1, 0, 0]", fillcolor="#e58139"] ;
824 -> 832 ;
833 [label="d5 <= -0.5\ngini = 0.364\nsamples = 18\nvalue = [1, 14, 3]", fillcolor="#6eeca3"] ;
815 -> 833 ;
834 [label="gini = 0.0\nsamples = 1\nvalue = [1, 0, 0]", fillcolor="#e58139"] ;
833 -> 834 ;
835 [label="d6 <= 0.5\ngini = 0.291\nsamples = 17\nvalue = [0, 14, 3]", fillcolor="#63eb9c"] ;
833 -> 835 ;
836 [label="e2 <= 0.5\ngini = 0.219\nsamples = 16\nvalue = [0, 14, 2]", fillcolor="#55e993"] ;
835 -> 836 ;
837 [label="d3 <= -0.5\ngini = 0.124\nsamples = 15\nvalue = [0, 14, 1]", fillcolor="#47e78a"] ;
836 -> 837 ;
838 [label="d4 <= 0.5\ngini = 0.278\nsamples = 6\nvalue = [0, 5, 1]", fillcolor="#61ea9a"] ;
837 -> 838 ;
839 [label="gini = 0.0\nsamples = 1\nvalue = [0, 0, 1]", fillcolor="#8139e5"] ;
838 -> 839 ;
840 [label="gini = 0.0\nsamples = 5\nvalue = [0, 5, 0]", fillcolor="#39e581"] ;
838 -> 840 ;
841 [label="gini = 0.0\nsamples = 9\nvalue = [0, 9, 0]", fillcolor="#39e581"] ;
837 -> 841 ;
842 [label="gini = 0.0\nsamples = 1\nvalue = [0, 0, 1]", fillcolor="#8139e5"] ;
836 -> 842 ;
843 [label="gini = 0.0\nsamples = 1\nvalue = [0, 0, 1]", fillcolor="#8139e5"] ;
835 -> 843 ;
844 [label="b2 <= 0.5\ngini = 0.429\nsamples = 39\nvalue = [2, 9, 28]", fillcolor="#af82ef"] ;
814 -> 844 ;
845 [label="d5 <= 0.5\ngini = 0.314\nsamples = 32\nvalue = [1, 5, 26]", fillcolor="#9d65eb"] ;
844 -> 845 ;
846 [label="e3 <= 0.5\ngini = 0.279\nsamples = 31\nvalue = [1, 4, 26]", fillcolor="#985eea"] ;
845 -> 846 ;
847 [label="a5 <= -0.5\ngini = 0.21\nsamples = 26\nvalue = [1, 2, 23]", fillcolor="#9152e8"] ;
846 -> 847 ;
848 [label="c1 <= 0.5\ngini = 0.444\nsamples = 3\nvalue = [1, 0, 2]", fillcolor="#c09cf2"] ;
847 -> 848 ;
849 [label="gini = 0.0\nsamples = 2\nvalue = [0, 0, 2]", fillcolor="#8139e5"] ;
848 -> 849 ;
850 [label="gini = 0.0\nsamples = 1\nvalue = [1, 0, 0]", fillcolor="#e58139"] ;
848 -> 850 ;
851 [label="d2 <= 0.5\ngini = 0.159\nsamples = 23\nvalue = [0, 2, 21]", fillcolor="#8d4ce7"] ;
847 -> 851 ;
852 [label="gini = 0.0\nsamples = 9\nvalue = [0, 0, 9]", fillcolor="#8139e5"] ;
851 -> 852 ;
853 [label="c1 <= 0.5\ngini = 0.245\nsamples = 14\nvalue = [0, 2, 12]", fillcolor="#965ae9"] ;
851 -> 853 ;
854 [label="gini = 0.0\nsamples = 8\nvalue = [0, 0, 8]", fillcolor="#8139e5"] ;
853 -> 854 ;
855 [label="d3 <= -0.5\ngini = 0.444\nsamples = 6\nvalue = [0, 2, 4]", fillcolor="#c09cf2"] ;
853 -> 855 ;
856 [label="gini = 0.0\nsamples = 3\nvalue = [0, 0, 3]", fillcolor="#8139e5"] ;
855 -> 856 ;
857 [label="a2 <= -0.5\ngini = 0.444\nsamples = 3\nvalue = [0, 2, 1]", fillcolor="#9cf2c0"] ;
855 -> 857 ;
858 [label="gini = 0.0\nsamples = 2\nvalue = [0, 2, 0]", fillcolor="#39e581"] ;
857 -> 858 ;
859 [label="gini = 0.0\nsamples = 1\nvalue = [0, 0, 1]", fillcolor="#8139e5"] ;
857 -> 859 ;
860 [label="d4 <= 0.5\ngini = 0.48\nsamples = 5\nvalue = [0, 2, 3]", fillcolor="#d5bdf6"] ;
846 -> 860 ;
861 [label="c1 <= 0.5\ngini = 0.375\nsamples = 4\nvalue = [0, 1, 3]", fillcolor="#ab7bee"] ;
860 -> 861 ;
862 [label="gini = 0.0\nsamples = 2\nvalue = [0, 0, 2]", fillcolor="#8139e5"] ;
861 -> 862 ;
863 [label="e4 <= -0.5\ngini = 0.5\nsamples = 2\nvalue = [0, 1, 1]", fillcolor="#ffffff"] ;
861 -> 863 ;
864 [label="gini = 0.0\nsamples = 1\nvalue = [0, 1, 0]", fillcolor="#39e581"] ;
863 -> 864 ;
865 [label="gini = 0.0\nsamples = 1\nvalue = [0, 0, 1]", fillcolor="#8139e5"] ;
863 -> 865 ;
866 [label="gini = 0.0\nsamples = 1\nvalue = [0, 1, 0]", fillcolor="#39e581"] ;
860 -> 866 ;
867 [label="gini = 0.0\nsamples = 1\nvalue = [0, 1, 0]", fillcolor="#39e581"] ;
845 -> 867 ;
868 [label="b3 <= -0.5\ngini = 0.571\nsamples = 7\nvalue = [1, 4, 2]", fillcolor="#b0f5cd"] ;
844 -> 868 ;
869 [label="b4 <= 0.5\ngini = 0.444\nsamples = 3\nvalue = [1, 0, 2]", fillcolor="#c09cf2"] ;
868 -> 869 ;
870 [label="gini = 0.0\nsamples = 2\nvalue = [0, 0, 2]", fillcolor="#8139e5"] ;
869 -> 870 ;
871 [label="gini = 0.0\nsamples = 1\nvalue = [1, 0, 0]", fillcolor="#e58139"] ;
869 -> 871 ;
872 [label="gini = 0.0\nsamples = 4\nvalue = [0, 4, 0]", fillcolor="#39e581"] ;
868 -> 872 ;
873 [label="b5 <= -0.5\ngini = 0.381\nsamples = 51\nvalue = [3, 9, 39]", fillcolor="#a572ec"] ;
813 -> 873 ;
874 [label="c1 <= 0.5\ngini = 0.444\nsamples = 3\nvalue = [1, 2, 0]", fillcolor="#9cf2c0"] ;
873 -> 874 ;
875 [label="gini = 0.0\nsamples = 2\nvalue = [0, 2, 0]", fillcolor="#39e581"] ;
874 -> 875 ;
876 [label="gini = 0.0\nsamples = 1\nvalue = [1, 0, 0]", fillcolor="#e58139"] ;
874 -> 876 ;
877 [label="a4 <= -0.5\ngini = 0.317\nsamples = 48\nvalue = [2, 7, 39]", fillcolor="#9d64eb"] ;
873 -> 877 ;
878 [label="d2 <= 0.5\ngini = 0.375\nsamples = 4\nvalue = [0, 3, 1]", fillcolor="#7beeab"] ;
877 -> 878 ;
879 [label="gini = 0.0\nsamples = 1\nvalue = [0, 0, 1]", fillcolor="#8139e5"] ;
878 -> 879 ;
880 [label="gini = 0.0\nsamples = 3\nvalue = [0, 3, 0]", fillcolor="#39e581"] ;
878 -> 880 ;
881 [label="e1 <= 0.5\ngini = 0.244\nsamples = 44\nvalue = [2, 4, 38]", fillcolor="#9457e9"] ;
877 -> 881 ;
882 [label="a5 <= -0.5\ngini = 0.194\nsamples = 38\nvalue = [2, 2, 34]", fillcolor="#8f4fe8"] ;
881 -> 882 ;
883 [label="gini = 0.0\nsamples = 1\nvalue = [0, 1, 0]", fillcolor="#39e581"] ;
882 -> 883 ;
884 [label="f2 <= 0.5\ngini = 0.152\nsamples = 37\nvalue = [2, 1, 34]", fillcolor="#8c4ae7"] ;
882 -> 884 ;
885 [label="d4 <= 0.5\ngini = 0.069\nsamples = 28\nvalue = [0, 1, 27]", fillcolor="#8640e6"] ;
884 -> 885 ;
886 [label="gini = 0.0\nsamples = 25\nvalue = [0, 0, 25]", fillcolor="#8139e5"] ;
885 -> 886 ;
887 [label="a3 <= 0.5\ngini = 0.444\nsamples = 3\nvalue = [0, 1, 2]", fillcolor="#c09cf2"] ;
885 -> 887 ;
888 [label="gini = 0.0\nsamples = 2\nvalue = [0, 0, 2]", fillcolor="#8139e5"] ;
887 -> 888 ;
889 [label="gini = 0.0\nsamples = 1\nvalue = [0, 1, 0]", fillcolor="#39e581"] ;
887 -> 889 ;
890 [label="a3 <= -0.5\ngini = 0.346\nsamples = 9\nvalue = [2, 0, 7]", fillcolor="#a572ec"] ;
884 -> 890 ;
891 [label="gini = 0.0\nsamples = 1\nvalue = [1, 0, 0]", fillcolor="#e58139"] ;
890 -> 891 ;
892 [label="c1 <= 0.5\ngini = 0.219\nsamples = 8\nvalue = [1, 0, 7]", fillcolor="#9355e9"] ;
890 -> 892 ;
893 [label="gini = 0.0\nsamples = 6\nvalue = [0, 0, 6]", fillcolor="#8139e5"] ;
892 -> 893 ;
894 [label="d2 <= 0.5\ngini = 0.5\nsamples = 2\nvalue = [1, 0, 1]", fillcolor="#ffffff"] ;
892 -> 894 ;
895 [label="gini = 0.0\nsamples = 1\nvalue = [1, 0, 0]", fillcolor="#e58139"] ;
894 -> 895 ;
896 [label="gini = 0.0\nsamples = 1\nvalue = [0, 0, 1]", fillcolor="#8139e5"] ;
894 -> 896 ;
897 [label="a2 <= -0.5\ngini = 0.444\nsamples = 6\nvalue = [0, 2, 4]", fillcolor="#c09cf2"] ;
881 -> 897 ;
898 [label="gini = 0.0\nsamples = 4\nvalue = [0, 0, 4]", fillcolor="#8139e5"] ;
897 -> 898 ;
899 [label="gini = 0.0\nsamples = 2\nvalue = [0, 2, 0]", fillcolor="#39e581"] ;
897 -> 899 ;
900 [label="b6 <= 0.5\ngini = 0.647\nsamples = 178\nvalue = [40, 74, 64]", fillcolor="#eefdf4"] ;
794 -> 900 ;
901 [label="e1 <= -0.5\ngini = 0.643\nsamples = 175\nvalue = [37, 74, 64]", fillcolor="#edfdf4"] ;
900 -> 901 ;
902 [label="c1 <= 0.5\ngini = 0.34\nsamples = 10\nvalue = [1, 8, 1]", fillcolor="#65eb9d"] ;
901 -> 902 ;
903 [label="gini = 0.0\nsamples = 7\nvalue = [0, 7, 0]", fillcolor="#39e581"] ;
902 -> 903 ;
904 [label="a5 <= 0.0\ngini = 0.667\nsamples = 3\nvalue = [1, 1, 1]", fillcolor="#ffffff"] ;
902 -> 904 ;
905 [label="b1 <= 0.5\ngini = 0.5\nsamples = 2\nvalue = [1, 0, 1]", fillcolor="#ffffff"] ;
904 -> 905 ;
906 [label="gini = 0.0\nsamples = 1\nvalue = [0, 0, 1]", fillcolor="#8139e5"] ;
905 -> 906 ;
907 [label="gini = 0.0\nsamples = 1\nvalue = [1, 0, 0]", fillcolor="#e58139"] ;
905 -> 907 ;
908 [label="gini = 0.0\nsamples = 1\nvalue = [0, 1, 0]", fillcolor="#39e581"] ;
904 -> 908 ;
909 [label="c1 <= 0.5\ngini = 0.647\nsamples = 165\nvalue = [36, 66, 63]", fillcolor="#f9fefb"] ;
901 -> 909 ;
910 [label="b1 <= -0.5\ngini = 0.632\nsamples = 122\nvalue = [23, 45, 54]", fillcolor="#f0e8fc"] ;
909 -> 910 ;
911 [label="f1 <= -0.5\ngini = 0.422\nsamples = 33\nvalue = [2, 7, 24]", fillcolor="#ad7eee"] ;
910 -> 911 ;
912 [label="gini = 0.0\nsamples = 1\nvalue = [1, 0, 0]", fillcolor="#e58139"] ;
911 -> 912 ;
913 [label="e1 <= 0.5\ngini = 0.389\nsamples = 32\nvalue = [1, 7, 24]", fillcolor="#a978ed"] ;
911 -> 913 ;
914 [label="f4 <= 0.5\ngini = 0.494\nsamples = 9\nvalue = [0, 4, 5]", fillcolor="#e6d7fa"] ;
913 -> 914 ;
915 [label="a4 <= 0.5\ngini = 0.408\nsamples = 7\nvalue = [0, 2, 5]", fillcolor="#b388ef"] ;
914 -> 915 ;
916 [label="b4 <= 0.5\ngini = 0.278\nsamples = 6\nvalue = [0, 1, 5]", fillcolor="#9a61ea"] ;
915 -> 916 ;
917 [label="gini = 0.0\nsamples = 4\nvalue = [0, 0, 4]", fillcolor="#8139e5"] ;
916 -> 917 ;
918 [label="b5 <= 0.5\ngini = 0.5\nsamples = 2\nvalue = [0, 1, 1]", fillcolor="#ffffff"] ;
916 -> 918 ;
919 [label="gini = 0.0\nsamples = 1\nvalue = [0, 1, 0]", fillcolor="#39e581"] ;
918 -> 919 ;
920 [label="gini = 0.0\nsamples = 1\nvalue = [0, 0, 1]", fillcolor="#8139e5"] ;
918 -> 920 ;
921 [label="gini = 0.0\nsamples = 1\nvalue = [0, 1, 0]", fillcolor="#39e581"] ;
915 -> 921 ;
922 [label="gini = 0.0\nsamples = 2\nvalue = [0, 2, 0]", fillcolor="#39e581"] ;
914 -> 922 ;
923 [label="b5 <= 0.5\ngini = 0.299\nsamples = 23\nvalue = [1, 3, 19]", fillcolor="#9a61ea"] ;
913 -> 923 ;
924 [label="a4 <= 0.5\ngini = 0.244\nsamples = 22\nvalue = [1, 2, 19]", fillcolor="#9457e9"] ;
923 -> 924 ;
925 [label="e2 <= 0.5\ngini = 0.117\nsamples = 16\nvalue = [0, 1, 15]", fillcolor="#8946e7"] ;
924 -> 925 ;
926 [label="gini = 0.0\nsamples = 13\nvalue = [0, 0, 13]", fillcolor="#8139e5"] ;
925 -> 926 ;
927 [label="f2 <= 0.5\ngini = 0.444\nsamples = 3\nvalue = [0, 1, 2]", fillcolor="#c09cf2"] ;
925 -> 927 ;
928 [label="gini = 0.0\nsamples = 2\nvalue = [0, 0, 2]", fillcolor="#8139e5"] ;
927 -> 928 ;
929 [label="gini = 0.0\nsamples = 1\nvalue = [0, 1, 0]", fillcolor="#39e581"] ;
927 -> 929 ;
930 [label="f2 <= 0.5\ngini = 0.5\nsamples = 6\nvalue = [1, 1, 4]", fillcolor="#b388ef"] ;
924 -> 930 ;
931 [label="e2 <= -0.5\ngini = 0.32\nsamples = 5\nvalue = [0, 1, 4]", fillcolor="#a06aec"] ;
930 -> 931 ;
932 [label="gini = 0.0\nsamples = 1\nvalue = [0, 1, 0]", fillcolor="#39e581"] ;
931 -> 932 ;
933 [label="gini = 0.0\nsamples = 4\nvalue = [0, 0, 4]", fillcolor="#8139e5"] ;
931 -> 933 ;
934 [label="gini = 0.0\nsamples = 1\nvalue = [1, 0, 0]", fillcolor="#e58139"] ;
930 -> 934 ;
935 [label="gini = 0.0\nsamples = 1\nvalue = [0, 1, 0]", fillcolor="#39e581"] ;
923 -> 935 ;
936 [label="c1 <= -0.5\ngini = 0.648\nsamples = 89\nvalue = [21, 38, 30]", fillcolor="#e4fbee"] ;
910 -> 936 ;
937 [label="b1 <= 0.5\ngini = 0.626\nsamples = 43\nvalue = [9, 13, 21]", fillcolor="#ddcaf8"] ;
936 -> 937 ;
938 [label="f5 <= -0.5\ngini = 0.18\nsamples = 10\nvalue = [1, 0, 9]", fillcolor="#8f4fe8"] ;
937 -> 938 ;
939 [label="gini = 0.0\nsamples = 1\nvalue = [1, 0, 0]", fillcolor="#e58139"] ;
938 -> 939 ;
940 [label="gini = 0.0\nsamples = 9\nvalue = [0, 0, 9]", fillcolor="#8139e5"] ;
938 -> 940 ;
941 [label="f3 <= -0.5\ngini = 0.654\nsamples = 33\nvalue = [8, 13, 12]", fillcolor="#f6fef9"] ;
937 -> 941 ;
942 [label="f4 <= 0.5\ngini = 0.278\nsamples = 6\nvalue = [1, 0, 5]", fillcolor="#9a61ea"] ;
941 -> 942 ;
943 [label="gini = 0.0\nsamples = 5\nvalue = [0, 0, 5]", fillcolor="#8139e5"] ;
942 -> 943 ;
944 [label="gini = 0.0\nsamples = 1\nvalue = [1, 0, 0]", fillcolor="#e58139"] ;
942 -> 944 ;
945 [label="e1 <= 0.5\ngini = 0.634\nsamples = 27\nvalue = [7, 13, 7]", fillcolor="#c4f7d9"] ;
941 -> 945 ;
946 [label="a4 <= -0.5\ngini = 0.625\nsamples = 12\nvalue = [6, 3, 3]", fillcolor="#f6d5bd"] ;
945 -> 946 ;
947 [label="gini = 0.0\nsamples = 2\nvalue = [0, 2, 0]", fillcolor="#39e581"] ;
946 -> 947 ;
948 [label="f3 <= 0.5\ngini = 0.54\nsamples = 10\nvalue = [6, 1, 3]", fillcolor="#f4c9aa"] ;
946 -> 948 ;
949 [label="f1 <= 0.5\ngini = 0.375\nsamples = 8\nvalue = [6, 0, 2]", fillcolor="#eeab7b"] ;
948 -> 949 ;
950 [label="gini = 0.0\nsamples = 5\nvalue = [5, 0, 0]", fillcolor="#e58139"] ;
949 -> 950 ;
951 [label="a3 <= -0.5\ngini = 0.444\nsamples = 3\nvalue = [1, 0, 2]", fillcolor="#c09cf2"] ;
949 -> 951 ;
952 [label="gini = 0.0\nsamples = 1\nvalue = [1, 0, 0]", fillcolor="#e58139"] ;
951 -> 952 ;
953 [label="gini = 0.0\nsamples = 2\nvalue = [0, 0, 2]", fillcolor="#8139e5"] ;
951 -> 953 ;
954 [label="a3 <= 0.5\ngini = 0.5\nsamples = 2\nvalue = [0, 1, 1]", fillcolor="#ffffff"] ;
948 -> 954 ;
955 [label="gini = 0.0\nsamples = 1\nvalue = [0, 1, 0]", fillcolor="#39e581"] ;
954 -> 955 ;
956 [label="gini = 0.0\nsamples = 1\nvalue = [0, 0, 1]", fillcolor="#8139e5"] ;
954 -> 956 ;
957 [label="e2 <= -0.5\ngini = 0.48\nsamples = 15\nvalue = [1, 10, 4]", fillcolor="#93f1ba"] ;
945 -> 957 ;
958 [label="b3 <= -0.5\ngini = 0.611\nsamples = 6\nvalue = [1, 2, 3]", fillcolor="#e0cef8"] ;
957 -> 958 ;
959 [label="gini = 0.0\nsamples = 1\nvalue = [0, 1, 0]", fillcolor="#39e581"] ;
958 -> 959 ;
960 [label="e3 <= 0.5\ngini = 0.56\nsamples = 5\nvalue = [1, 1, 3]", fillcolor="#c09cf2"] ;
958 -> 960 ;
961 [label="gini = 0.0\nsamples = 2\nvalue = [0, 0, 2]", fillcolor="#8139e5"] ;
960 -> 961 ;
962 [label="a2 <= -0.5\ngini = 0.667\nsamples = 3\nvalue = [1, 1, 1]", fillcolor="#ffffff"] ;
960 -> 962 ;
963 [label="b2 <= 0.5\ngini = 0.5\nsamples = 2\nvalue = [1, 1, 0]", fillcolor="#ffffff"] ;
962 -> 963 ;
964 [label="gini = 0.0\nsamples = 1\nvalue = [1, 0, 0]", fillcolor="#e58139"] ;
963 -> 964 ;
965 [label="gini = 0.0\nsamples = 1\nvalue = [0, 1, 0]", fillcolor="#39e581"] ;
963 -> 965 ;
966 [label="gini = 0.0\nsamples = 1\nvalue = [0, 0, 1]", fillcolor="#8139e5"] ;
962 -> 966 ;
967 [label="f1 <= 0.5\ngini = 0.198\nsamples = 9\nvalue = [0, 8, 1]", fillcolor="#52e891"] ;
957 -> 967 ;
968 [label="gini = 0.0\nsamples = 7\nvalue = [0, 7, 0]", fillcolor="#39e581"] ;
967 -> 968 ;
969 [label="a3 <= -0.5\ngini = 0.5\nsamples = 2\nvalue = [0, 1, 1]", fillcolor="#ffffff"] ;
967 -> 969 ;
970 [label="gini = 0.0\nsamples = 1\nvalue = [0, 1, 0]", fillcolor="#39e581"] ;
969 -> 970 ;
971 [label="gini = 0.0\nsamples = 1\nvalue = [0, 0, 1]", fillcolor="#8139e5"] ;
969 -> 971 ;
972 [label="e2 <= -0.5\ngini = 0.598\nsamples = 46\nvalue = [12, 25, 9]", fillcolor="#b3f5cf"] ;
936 -> 972 ;
973 [label="a3 <= 0.5\ngini = 0.612\nsamples = 21\nvalue = [11, 5, 5]", fillcolor="#f5d0b5"] ;
972 -> 973 ;
974 [label="f1 <= 0.5\ngini = 0.278\nsamples = 12\nvalue = [10, 2, 0]", fillcolor="#ea9a61"] ;
973 -> 974 ;
975 [label="a2 <= -0.5\ngini = 0.5\nsamples = 4\nvalue = [2, 2, 0]", fillcolor="#ffffff"] ;
974 -> 975 ;
976 [label="a3 <= -0.5\ngini = 0.444\nsamples = 3\nvalue = [2, 1, 0]", fillcolor="#f2c09c"] ;
975 -> 976 ;
977 [label="b2 <= 0.5\ngini = 0.5\nsamples = 2\nvalue = [1, 1, 0]", fillcolor="#ffffff"] ;
976 -> 977 ;
978 [label="gini = 0.0\nsamples = 1\nvalue = [0, 1, 0]", fillcolor="#39e581"] ;
977 -> 978 ;
979 [label="gini = 0.0\nsamples = 1\nvalue = [1, 0, 0]", fillcolor="#e58139"] ;
977 -> 979 ;
980 [label="gini = 0.0\nsamples = 1\nvalue = [1, 0, 0]", fillcolor="#e58139"] ;
976 -> 980 ;
981 [label="gini = 0.0\nsamples = 1\nvalue = [0, 1, 0]", fillcolor="#39e581"] ;
975 -> 981 ;
982 [label="gini = 0.0\nsamples = 8\nvalue = [8, 0, 0]", fillcolor="#e58139"] ;
974 -> 982 ;
983 [label="e3 <= 0.5\ngini = 0.568\nsamples = 9\nvalue = [1, 3, 5]", fillcolor="#d5bdf6"] ;
973 -> 983 ;
984 [label="f1 <= 0.5\ngini = 0.449\nsamples = 7\nvalue = [1, 1, 5]", fillcolor="#ab7bee"] ;
983 -> 984 ;
985 [label="gini = 0.0\nsamples = 3\nvalue = [0, 0, 3]", fillcolor="#8139e5"] ;
984 -> 985 ;
986 [label="a5 <= -0.5\ngini = 0.625\nsamples = 4\nvalue = [1, 1, 2]", fillcolor="#d5bdf6"] ;
984 -> 986 ;
987 [label="gini = 0.0\nsamples = 1\nvalue = [0, 1, 0]", fillcolor="#39e581"] ;
986 -> 987 ;
988 [label="b1 <= 0.5\ngini = 0.444\nsamples = 3\nvalue = [1, 0, 2]", fillcolor="#c09cf2"] ;
986 -> 988 ;
989 [label="gini = 0.0\nsamples = 2\nvalue = [0, 0, 2]", fillcolor="#8139e5"] ;
988 -> 989 ;
990 [label="gini = 0.0\nsamples = 1\nvalue = [1, 0, 0]", fillcolor="#e58139"] ;
988 -> 990 ;
991 [label="gini = 0.0\nsamples = 2\nvalue = [0, 2, 0]", fillcolor="#39e581"] ;
983 -> 991 ;
992 [label="a5 <= -0.5\ngini = 0.333\nsamples = 25\nvalue = [1, 20, 4]", fillcolor="#68eb9f"] ;
972 -> 992 ;
993 [label="gini = 0.0\nsamples = 7\nvalue = [0, 7, 0]", fillcolor="#39e581"] ;
992 -> 993 ;
994 [label="a4 <= 0.5\ngini = 0.426\nsamples = 18\nvalue = [1, 13, 4]", fillcolor="#80eeae"] ;
992 -> 994 ;
995 [label="b1 <= 0.5\ngini = 0.26\nsamples = 13\nvalue = [0, 11, 2]", fillcolor="#5dea98"] ;
994 -> 995 ;
996 [label="f4 <= 0.5\ngini = 0.444\nsamples = 6\nvalue = [0, 4, 2]", fillcolor="#9cf2c0"] ;
995 -> 996 ;
